431 200
plane -0.31593 -0.023382 -0.060868 0.47488 -0.40986 -0.38343 0.14778 0.022115 -0.18126 -0.26777 -0.3428 -0.018886 -0.37158 -0.027156 0.2793 0.11006 0.47969 -0.46572 0.10281 -0.16248 0.18353 0.0082744 -0.050057 0.066704 0.068486 0.74725 0.24675 -0.1305 0.17143 0.054932 0.020386 -0.2304 -0.19556 0.054763 0.096268 -0.4211 -0.32668 -0.26008 0.33382 0.0047136 -0.39344 0.29151 -0.42305 0.13152 0.044159 0.11862 0.14682 0.55725 0.36488 -0.21057 -0.33059 0.41039 0.12016 0.59589 0.44911 0.028037 0.11194 0.092349 -0.39905 0.37922 -0.10883 -0.092203 -0.28846 -0.218 0.23333 -0.065927 0.063183 0.19007 -0.38608 -0.27201 0.069777 0.29565 -0.41304 -0.184 -0.082383 -0.08546 0.17266 0.33036 0.5479 0.23816 0.27109 -0.017245 -0.052274 -0.18103 0.012892 0.47065 0.56117 0.10529 0.027537 0.22294 0.23471 0.085315 -0.28597 -0.14285 -0.14883 -0.018535 -0.073239 -0.1457 0.26026 0.22402 0.078638 -0.083403 -0.022595 -0.10534 0.18937 0.12868 -0.28435 -0.50326 -0.23156 0.043603 -0.09186 -0.16565 -0.39614 0.26413 -0.028922 0.48901 -0.023101 0.073947 -0.22546 -0.11595 0.55534 -0.26299 0.16813 -0.1285 -0.12475 -0.099976 -0.027756 -0.27989 0.18911 -0.011156 -0.22359 -0.027744 -0.10376 0.34525 0.105 -0.12157 -0.047059 -0.08212 0.34672 -0.14418 0.40142 0.12285 -0.11223 0.10047 -0.31035 0.65709 -0.42523 0.34483 -0.044846 -0.14682 0.085854 -0.56702 -0.11574 0.23402 -0.39276 0.57443 -0.57718 -0.11626 -0.42772 0.048403 0.40481 0.010569 -0.21921 0.41495 0.29907 -0.029461 0.028635 0.22717 0.40461 0.12895 0.29708 -0.10769 -0.37586 0.29447 0.040326 -0.048984 -0.4159 -0.070069 0.15328 0.1387 0.38376 -0.32825 -0.058299 0.20806 0.073656 0.16348 0.32225 -0.35112 0.037924 0.017881 -0.59383 -0.082922 0.28052 0.17552 0.14528 -0.086912 -0.15817 -0.24331 -0.11234 0.24961
stupid -0.40208 -0.065469 -0.10582 -0.26126 0.15207 0.20302 -0.14989 0.48373 -0.034355 -0.12438 -0.1692 0.32414 -0.40895 -0.20087 0.31424 0.0016889 0.42789 -0.08762 0.11702 -0.01361 0.25305 0.059783 -0.096396 -0.26657 -0.0097625 0.20347 0.26339 -0.0035667 -0.12817 0.25839 0.11002 -0.2233 -0.063347 0.1802 -0.16092 0.019967 0.21995 -0.14942 -0.04583 -0.024358 0.29018 0.067331 0.36618 0.010277 0.081988 -0.18944 0.19923 0.26114 0.31236 0.20976 0.03458 0.072766 0.12971 -0.13757 0.21854 0.57758 -0.27793 -0.26558 -0.075661 -0.016437 0.089059 -0.085062 -0.19026 0.39432 -0.24579 -0.12664 0.11485 0.049418 -0.50246 0.43914 -0.20139 -0.068298 -0.040868 -0.21297 -0.57611 -0.40501 0.50396 -0.2504 0.23217 0.014231 -0.16744 -0.47607 0.27067 -0.13706 -0.38389 0.6858 0.067713 0.31998 -0.23929 -0.054801 0.018866 0.67701 0.18291 0.27007 -0.77923 -0.16664 -0.20352 -0.21604 -0.22685 0.08526 -0.18276 0.52731 -0.26519 -0.81776 -0.096916 0.20161 0.45617 -0.035083 -0.012978 0.25284 -0.32746 -0.10562 0.11784 0.060338 -0.11972 -0.13781 -0.15332 0.3389 0.18335 0.62962 0.19005 -0.14792 -0.16007 -0.3386 -0.052178 0.10841 0.010946 0.31466 0.091171 -0.19187 -0.084523 0.1761 0.62968 0.13578 0.50556 -0.089661 -0.096489 -0.21264 0.11955 0.3468 -0.33361 0.23949 0.23092 -0.059938 0.29085 -0.54255 0.22262 -0.027225 -0.38483 -0.06546 -0.45702 -0.086045 -0.37543 0.39597 -0.08233 0.18336 -0.11568 0.063073 -0.26709 -0.39766 0.17982 0.1725 -0.07404 0.049123 -0.20233 -0.10639 -0.092518 -0.055386 -0.16142 -0.336 -0.16821 -0.47568 0.038572 0.18698 -0.41842 0.17689 -0.052643 0.28229 -0.26667 0.39349 0.18908 -0.22477 -0.096694 0.28289 -0.19436 -0.056292 0.14486 0.19033 0.35951 0.42912 -0.1057 -0.43512 -0.16005 -0.11385 0.30555 -0.054488 -0.28577 0.10459 -0.38942 -0.021223
egg 0.14021 -0.35697 0.12395 -0.23046 -0.22268 0.14821 0.26259 -0.38082 0.4074 0.24229 -0.15902 0.0078161 0.097256 -0.25618 0.46516 0.091204 -0.15671 0.39228 -0.38595 0.14968 0.034922 0.13748 0.28254 -0.19974 -0.094348 0.27312 -0.22131 -0.02539 0.4356 0.12848 -0.31961 0.36777 0.048105 0.058275 0.078316 -0.5341 -0.058117 -0.79628 -0.44332 -0.22121 -0.59577 -0.11911 -0.25153 0.054198 -0.35546 0.11792 0.43988 0.79123 0.33992 -0.23777 0.28088 -0.24419 0.4085 -0.56555 0.51177 0.30091 0.29375 -0.07958 0.11157 -0.064392 -0.17053 -0.018463 0.32747 0.027775 -0.10229 0.59452 0.048809 0.056481 -0.48391 0.17114 -0.31737 0.12257 -0.088068 0.12324 -0.42263 -0.096163 -0.17196 0.033862 0.076262 0.27342 -0.51455 -0.55239 -0.49733 -0.019719 0.12467 0.54858 -0.175 -0.04773 -0.43032 -0.28641 0.011428 0.2778 0.12034 -0.37738 -0.69781 -0.45007 0.04757 0.45754 0.94217 0.12338 0.22501 0.38119 0.093095 -0.44916 0.2267 0.17209 0.3634 -0.48054 0.46197 0.4454 -0.4134 -0.061731 0.18313 -0.2508 0.25017 -0.1702 -0.02549 0.31146 0.11336 0.073221 0.038014 -0.15602 0.073779 -0.31428 -0.19838 -0.21219 -0.021184 0.0426 0.061026 0.13206 -0.067867 0.47993 0.12852 -0.445 0.77621 0.3739 0.11275 0.26929 0.13759 0.15771 -0.38452 0.24119 -0.28192 -0.28959 -0.13586 -0.43759 0.56688 0.061478 0.1323 0.17148 -0.23895 -0.069876 0.15903 -0.27704 -0.14288 -0.079606 -0.67247 -0.026603 -0.36011 -0.099119 0.34593 0.19964 -0.61011 0.60612 -0.46904 -0.11914 -0.23522 0.059092 -0.15685 -0.40135 0.092417 -0.35971 -0.26702 -0.28659 0.22393 -0.2445 -0.1105 0.34049 0.31052 -0.39915 -0.42319 0.29762 -0.26243 0.0011355 0.067852 0.25832 0.29501 0.22285 -0.35476 0.036326 -0.11999 0.033739 -0.042494 -0.028699 -0.23119 0.25559 -0.5473 -0.50619 -0.036342 -0.24811
year 0.1242 0.04699 -0.25543 0.26111 0.09368 0.056716 -0.11665 0.21738 0.010955 0.45029 -0.22058 0.16245 0.099887 0.017539 0.12944 0.045437 0.19212 0.14138 -0.022092 0.06366 0.31487 0.13661 -0.05965 0.10091 0.12045 0.037787 0.19398 -0.1765 0.17588 0.068546 -0.23702 -0.030875 -0.031707 -0.024682 0.10578 0.071985 -0.18974 0.012537 0.288 0.091114 -0.12652 0.026435 0.2212 0.0014152 -0.10645 -0.080748 0.068297 0.29712 -0.073074 0.029725 -0.055834 0.18101 0.27236 -0.070689 0.12113 -0.12128 0.31373 -0.20875 -0.075784 0.17761 -0.037903 -0.027314 0.33827 0.19557 0.1442 0.1763 -0.16595 -0.061303 -0.093581 0.1139 -0.087469 0.12013 -0.13161 0.0082241 0.03904 0.004888 -0.18032 0.069544 0.045654 0.01457 -0.28715 0.19892 -0.09073 -0.085983 -0.0033824 0.087874 -0.012691 -0.15945 0.0074254 0.0033993 0.010452 -0.14314 0.12083 0.17514 -0.09859 0.01381 -0.033299 0.27402 0.14788 0.073804 -0.0062623 0.13963 0.11826 -0.089858 0.075459 0.020634 0.070657 -0.13629 0.37386 -0.20506 0.10411 -0.18412 0.011798 -0.32488 0.24497 -0.014736 0.0025022 0.14732 -0.0011533 -0.10124 -0.11612 0.0063475 0.067023 -0.0077938 -0.053139 0.24587 0.16325 0.19397 -0.036821 0.063468 0.31991 0.024722 -0.056731 -0.30646 -0.11683 -0.32629 -0.31863 -0.27842 -0.36392 -0.17056 0.11773 0.00549 -0.16762 0.034193 0.10347 0.1565 -0.27142 -0.2317 -0.55757 0.10954 -0.25107 -0.10201 -0.07531 -0.13832 -0.14268 0.29353 -0.37339 -0.065241 -0.2875 -0.01354 0.19055 -0.15912 -0.057479 0.4856 -0.058393 -0.065001 0.19237 0.020433 -0.13194 0.26841 -0.10194 0.038369 0.033371 -0.20331 0.062338 0.30345 0.028577 0.12221 0.11015 -0.22587 0.24375 -0.16601 0.0020478 -0.076092 -0.048931 -0.35113 -0.15816 0.035332 -0.075474 0.018637 -0.11239 0.026109 0.063577 -0.0068021 0.10003 0.0712 0.17003 0.13935 -0.1378 0.18399
psychiatry 0.28538 0.27976 0.226 -0.82026 0.27752 0.03984 0.047058 0.072584 0.26305 -0.38143 -0.26234 -0.50278 -0.073068 0.2693 0.36142 -0.15482 0.26636 -0.38808 0.27246 -7.9359E-4 0.34626 -0.47513 0.4776 0.051889 -0.12867 -0.16373 0.32676 -0.38256 0.42908 -0.030757 -0.13415 0.054809 -0.13711 0.16489 -0.31853 -0.10703 -0.29812 -0.25744 -0.18829 -0.10914 -0.02041 -0.080369 0.20653 0.18623 0.43677 -0.086829 0.56425 -0.24653 0.008453 -0.27103 -0.012437 -0.17433 -0.11328 0.17181 -0.03137 0.40601 -0.19057 -0.46095 -0.11073 0.062535 0.13017 0.085281 -0.091272 0.11645 -0.27886 -0.0032947 9.6558E-5 -0.066592 0.29116 -0.30392 -0.17079 -0.12176 -0.16471 0.13262 -0.39468 0.16216 0.40843 0.11581 0.20107 -0.52138 0.027647 -0.25963 -0.39782 -0.2478 -0.12221 0.298 -0.40801 0.03064 -0.036418 0.22259 0.64349 0.64873 0.067095 -0.3258 -0.4274 0.028927 -0.035222 -0.090804 0.43806 -0.12854 0.024498 0.34297 -0.14157 -0.49655 0.098783 0.29943 0.062464 -0.41586 0.038476 0.17155 0.3253 -0.34802 -0.18872 -0.29634 -0.14489 -0.015294 0.27635 -0.42363 0.07492 0.39429 -0.059104 0.23434 -0.19376 0.17751 0.14448 -0.17629 -0.50268 0.18729 0.040582 0.52744 0.31897 0.36714 -0.039905 -0.062971 -0.18334 0.031209 -0.62346 0.02306 -0.58412 -0.23467 0.46616 -0.026974 0.037383 -0.096135 -0.32547 0.24004 0.4317 0.26738 -1.2202 0.65756 -0.50123 -0.031596 -0.52182 0.084776 0.44889 0.62153 -0.56104 -0.15714 -0.080509 0.013935 -0.11778 0.29229 -0.32988 0.018102 0.46972 -0.117 0.57032 0.29428 0.16225 -0.0057238 -0.072537 0.20284 0.077694 -0.41085 -0.18465 -0.21514 0.16152 -0.0054744 0.057394 -0.7512 -0.24972 0.23102 7.127E-4 0.66703 0.063743 0.20071 -0.12974 -0.2496 0.51451 -0.011235 -0.48091 -0.020352 0.08742 -0.14465 0.033633 0.10355 -0.0096929 -0.1882 -0.094445 0.043857
asylum 0.0032562 0.1127 -0.19862 0.69694 2.9396E-5 0.60655 -0.075753 0.49557 -0.0872 0.022888 0.11615 0.052955 0.23316 -0.072749 0.41264 0.19613 0.52945 -0.14864 -0.58331 -0.052935 -0.28385 -0.60359 0.41366 0.2638 -0.1344 0.41529 0.27256 -0.27243 -0.093169 0.23628 0.046114 -0.0052088 -0.38593 0.21619 -0.053441 0.060534 -0.60126 -0.084597 -0.057212 -0.37525 -0.039725 0.12261 -0.15068 -0.36088 -0.0013755 -0.27052 0.72462 -0.25943 -0.10788 0.056081 -0.58008 -0.24968 0.23197 0.15391 0.049535 0.40589 -0.21358 -2.0043E-4 0.10986 0.079195 0.46013 -0.033104 0.070712 -0.26956 -0.2928 -0.43514 -0.21947 -0.2161 0.45524 -0.41627 -0.19685 -0.082879 0.057236 0.17991 -0.66041 -0.15415 -0.32743 0.0033611 -0.0048567 -0.053473 -0.10835 0.29937 -0.089917 -0.28402 0.18952 -0.064324 -0.062591 0.30973 0.27011 0.56736 -0.10463 -0.42639 0.27621 -0.55807 -0.65702 0.28315 -0.37163 0.1286 0.1977 -0.46739 0.016961 -0.041086 -0.037806 -0.20135 0.083058 0.013331 0.25201 0.19447 -0.41548 0.14756 -0.35232 -0.41218 -0.071766 0.11576 -0.1574 0.034241 -0.2077 0.50746 0.037844 -0.077778 0.14116 0.046355 0.011621 -0.35352 -0.63663 0.91145 -0.17834 -0.12812 0.016543 0.04577 -0.38219 -0.063131 0.1393 -0.2377 0.039479 -0.15212 -0.29376 0.091562 0.0037827 -0.26093 0.33221 -0.33866 -0.34029 -0.17276 0.029326 -0.14665 0.20632 -0.3624 -0.55464 0.23598 -0.45771 -0.29536 -0.37832 0.012775 -0.077173 0.78273 -0.55163 -0.51566 -0.54845 0.22838 0.35785 -0.15739 -0.4195 0.25184 0.2333 -0.12646 -0.21227 0.15528 -0.16972 -0.8131 0.36604 0.0095399 -0.039301 -0.84949 0.20237 -0.32917 0.034898 0.098419 -0.28096 -0.003845 0.4567 -0.069682 0.4715 0.43272 -0.084594 -0.41115 -0.081535 0.26011 -0.12614 -0.067593 -0.43206 -0.090527 0.17419 0.0070422 0.41008 0.40523 -0.63046 -0.14959 0.11857 0.21654
manslaughter 0.33817 -0.20299 0.33155 -0.018858 0.32884 -0.19189 0.21574 -0.25453 -0.030469 -0.20995 0.071046 0.1349 -0.52011 -0.43098 0.234 -0.023327 0.379 -0.45164 -0.2367 -0.050036 0.13133 -0.12907 0.25271 -0.36389 -0.35902 -0.29789 -0.16126 -0.30757 -0.045348 -0.18961 0.020232 0.21255 0.16564 0.07535 0.18818 0.099442 0.0021385 -0.021878 0.080018 0.32689 0.098363 0.12202 0.26609 -0.06642 0.2874 0.052123 0.035875 0.29715 0.22506 0.14401 -0.10729 -0.20727 -0.024388 -0.17805 -0.42057 -0.13394 -0.079466 -0.12894 0.025204 0.057586 0.038096 -0.059998 -0.087537 -0.0049022 -0.24652 -0.2926 -0.099118 -0.012006 0.5852 -0.026545 0.12147 -0.12784 0.3611 -0.26543 0.15024 0.026718 0.074088 0.093309 0.31879 -0.43783 0.27877 -0.18024 0.12222 -0.13428 -0.48733 0.4741 -0.3728 0.627 -0.35658 -0.55212 0.41209 0.20491 0.095978 -0.3151 -0.20074 0.25675 -0.37354 0.23441 0.47135 0.1961 -0.35364 0.60402 0.05777 -0.35135 -0.019186 0.2438 0.014828 -0.48598 -0.18373 -0.61655 0.24337 0.1532 0.51702 0.28821 -0.08871 -0.37667 -0.23092 0.1133 -0.073552 0.054914 -0.027218 -0.086067 -0.38027 -0.56567 0.20061 -0.40294 -0.11626 -0.44086 -0.24971 0.14606 0.4264 0.094605 0.068666 -0.098989 -0.20065 -0.025607 -0.62344 -0.40965 -0.28785 0.37017 -0.16208 -0.24257 -0.51206 -0.31168 -0.080224 0.21439 0.031669 0.049153 -0.28502 0.15693 -0.48852 0.0033036 -0.46869 -0.089266 -0.053372 0.28532 -1.2483 -0.79762 -0.87808 -0.25458 0.35308 0.06563 -0.35554 0.64997 -0.18094 -0.2606 0.43102 -0.018321 0.13952 0.26081 0.41173 0.26571 -0.22116 -0.15158 0.21459 -0.20414 -0.16819 0.10354 0.040645 -0.70667 0.22813 -0.57807 -0.11352 0.32823 0.15798 0.25391 0.32731 0.097685 0.71831 0.24578 -0.41405 -0.13206 -0.095025 0.29166 0.47714 0.007964 0.061503 -0.01752 0.18886 0.18991
music -0.26798 -0.010346 0.10442 -0.28237 0.078749 -0.25198 0.30771 0.060264 0.21403 -0.23544 0.61366 -0.32221 -0.082225 0.30173 -0.16221 -0.24114 -0.29136 0.34022 -9.1325E-4 0.0078529 0.19795 -0.23327 -0.025281 0.27034 -0.099205 0.17517 -0.10674 -0.19023 0.41978 -0.40617 -0.67063 -0.3728 0.0079489 -0.11914 0.27489 -0.011087 0.011109 -0.48013 -0.21054 -0.13821 -0.41865 0.26665 -0.089694 -0.15814 0.19408 -0.11091 0.12315 0.24087 -0.13253 0.041143 -0.11284 -0.018347 -0.29373 -0.0055002 0.091771 0.34735 0.0086686 -0.12735 0.21174 0.25041 -0.11863 0.2173 -0.089189 -0.42009 -0.081107 -0.0091767 0.041971 0.20624 -0.13408 -0.019434 0.13356 -0.13522 -0.51674 0.046342 0.0718 0.040946 0.58627 -0.17682 0.2224 0.40227 -0.26548 -0.36913 0.30834 -0.30888 0.24803 -0.013299 0.32604 -0.37975 -0.36283 -0.53426 0.6537 0.68865 0.22098 0.11518 -0.65603 -0.10127 0.11802 0.33598 0.072442 -0.083041 0.34499 0.062276 0.17918 -0.36852 -0.094116 0.42348 -0.19989 -0.34247 0.33117 -0.3568 -1.3737E-5 0.22285 -0.14661 -0.045712 -0.087282 -0.39674 -0.099606 -0.28234 0.031195 -0.016622 0.048442 -0.091256 0.025486 -0.1262 -0.73399 0.53971 0.22781 -0.0093978 -0.093858 -0.23379 0.016651 0.28511 0.3076 -0.16079 -0.13071 -0.3005 -0.062087 0.0044515 0.034043 -0.18213 -0.38513 -0.095688 -0.050008 -0.01457 -0.025364 -0.13839 0.032083 -0.17957 -0.29959 0.4312 -0.46274 -0.21558 -0.008591 -0.047207 -0.34874 0.17239 -0.50732 0.0624 -0.14113 -0.20617 0.035608 0.070182 0.29709 0.1484 0.33605 -0.38015 -0.17908 0.020627 -0.16645 0.28546 0.22345 -0.18427 -0.142 -0.3009 -0.018387 -0.098363 -0.041842 0.0097031 -0.32467 -0.12379 0.41147 0.048124 -0.019028 0.13575 0.56844 -0.25627 -0.071933 -0.055772 0.47849 -6.119E-4 -0.045572 -0.047772 -0.45146 -0.031221 0.38331 0.29749 0.11921 -0.013025 -0.089279 0.028966
record 0.24195 -0.38704 -0.070625 0.14086 -0.10064 -0.23777 0.115 0.21652 -0.25284 -0.11676 -0.37295 -0.14858 0.099567 0.040116 0.41712 0.33803 -0.070432 0.11914 0.21431 -0.19096 -0.27846 0.35793 0.14848 0.14339 0.08443 0.24608 0.39712 -0.041272 0.16499 -0.30857 -0.25704 0.43603 0.043346 0.13939 0.19258 0.018589 0.14495 -0.033432 -0.10849 -0.054906 0.26816 0.36634 0.12562 0.19859 0.031185 0.24346 -0.28563 0.15782 -0.006225 -0.06161 -0.19319 -0.090789 -0.072535 -0.2107 0.070699 -0.10721 0.38187 -0.49209 -0.031667 0.049096 -0.15523 -0.14547 0.36395 0.11866 0.4615 0.51105 -0.080969 -0.004263 -0.17021 0.21387 -0.19884 -0.29152 -0.19814 -0.11946 0.057579 0.011558 0.11899 0.40956 0.26576 0.087306 -0.090231 -0.12044 0.03459 -0.38605 0.23619 0.28997 0.20156 -0.082628 0.047439 0.085226 0.1184 -0.044504 0.24288 0.12146 -0.2513 0.0065239 -0.44069 -0.22331 0.049746 -0.38581 -0.14659 -0.069507 0.08918 -0.2806 -0.080833 -0.054362 -0.017636 -0.0801 0.37569 -0.28134 -0.046558 -0.17893 -0.030582 -0.36696 -0.086397 0.094042 -0.060232 0.0038437 -0.52085 0.11079 -0.096122 0.050141 -0.32322 -0.088929 -0.46123 0.27136 0.0066278 0.23286 -0.36965 -0.18532 0.31744 0.049717 0.60989 -0.20007 -0.3049 -0.45058 -0.42567 -0.38607 -0.26187 0.066116 -0.019127 0.1235 -0.027921 0.31206 -0.086629 -0.12992 -0.054519 0.17725 -0.1009 0.25251 0.11262 -0.29144 0.14859 -0.092815 0.16495 0.31842 -0.38942 0.25957 -0.26237 -2.3726E-5 0.22743 -0.31426 -0.084657 0.38267 0.18671 -0.1934 0.070094 0.33592 -0.17047 -0.15299 0.10622 -0.38063 -0.30224 -0.11947 0.23792 -0.15438 0.21347 0.029742 -0.56207 -0.0062766 0.35676 -0.38942 -0.3798 -0.052924 -0.058821 0.081039 -0.22587 0.085407 0.282 0.1014 0.16351 -0.14184 -0.021348 -0.043035 0.48251 -0.074051 0.10067 -0.06951 -0.1859 -0.1939
energy 0.20097 0.024156 -0.088512 0.22446 0.20868 -0.29232 0.11456 0.491 0.29229 0.15057 0.084109 -0.05208 0.17482 -0.30311 0.60574 -0.23805 0.16299 -0.15417 0.15062 -0.04716 -0.14298 -0.16936 0.11655 0.044769 -0.099347 -0.18644 0.15754 -0.23241 0.12228 -0.55708 -0.028674 0.022997 -0.23545 -0.23249 0.03228 0.07345 0.0014973 -0.097786 -0.11898 0.13531 0.15893 -0.38986 0.21255 -0.16352 0.056726 0.010748 0.47375 0.41694 0.1518 0.24927 0.062505 0.39818 0.47626 -0.11295 -0.18522 0.67264 0.49926 -0.9949 0.024298 0.56696 -0.43925 -0.0036672 -0.30171 -0.16185 0.12266 0.025319 0.096598 0.18068 -0.70181 0.042147 -0.03863 0.17605 -0.32299 -0.2497 -0.49155 -0.4694 0.3636 0.20688 0.11928 -0.084501 -0.34695 0.11451 0.11747 -0.28644 -0.12951 0.42965 -0.084823 -0.13015 -0.093452 0.14682 0.16154 0.24499 -0.015379 -0.19009 -0.19267 -0.35934 -0.27322 -0.038791 -0.30048 -0.20148 -0.3753 0.1831 -0.049848 0.3756 0.1301 0.31826 -0.3203 0.073368 0.19803 0.11002 0.1005 -0.32549 -0.1283 0.0023762 0.043112 -0.24827 0.18226 -0.15287 -0.18236 0.40889 -0.18064 -0.70303 -0.1591 -0.13503 -0.3148 0.25751 0.054206 0.1358 0.065641 -0.64791 -0.064994 0.2938 0.08538 0.44759 -0.43586 -0.395 0.031568 0.03212 -0.051946 0.34145 0.044087 0.013993 0.035412 0.065581 -0.15179 0.14274 0.35227 -0.080844 0.21041 0.046351 -0.09252 -0.046684 0.15717 0.040466 0.11995 0.3844 -0.17688 0.48428 -0.12149 0.0055155 0.055931 0.19506 0.19071 0.050366 0.12222 0.12886 0.34624 0.24589 0.07168 -0.16194 0.15045 0.1373 0.099068 -0.25135 -0.13489 0.10812 0.22441 0.30864 0.58649 -0.39079 0.14321 -0.090188 0.3557 0.030163 0.12631 -0.1659 0.012494 0.42766 -0.058059 0.10797 0.284 -0.14389 0.021921 -0.17431 -0.11458 0.27904 0.018267 -0.063138 -0.10384 0.47545
announcement 0.079746 -0.18412 0.06804 0.27652 -0.08049 0.22928 0.2887 -0.14025 -0.0072511 0.37505 -0.034512 0.2209 0.013945 -0.072409 0.065984 0.19371 0.076086 -0.02634 -0.096185 0.24719 -0.13707 0.17689 -0.13856 -0.0722 -0.016881 0.11804 0.060499 -0.050288 0.03934 -0.11635 0.26643 0.0018604 0.0080749 -0.10648 0.035934 0.046613 -0.023639 -0.16959 0.13371 0.27446 -0.29821 0.033691 -0.22837 0.099107 -0.10504 0.23558 0.15762 0.36461 0.2708 0.47568 0.034002 0.38779 0.21824 0.14309 -0.19855 -0.20131 0.072786 0.047359 -0.0089949 -0.12105 -0.084941 0.03336 0.17789 0.029013 -0.11757 -0.0064955 -0.099197 0.027745 -0.19041 -0.10932 -0.1763 0.26666 0.041027 -0.10823 -0.20314 0.031775 0.074037 0.16366 -0.22281 0.36027 -0.25508 0.013144 -0.1497 0.10889 -0.13753 0.1663 -0.027432 -0.067817 -0.11857 0.045721 0.11248 -0.060143 -0.068324 -0.021709 0.1717 -0.21506 0.2611 -0.17498 0.38855 0.080993 -0.059461 0.19844 -0.47987 0.11276 -0.13728 0.33574 -0.34313 -0.3929 -0.19794 -0.07949 0.0046218 0.034211 -0.17136 -0.12454 -0.16312 -0.1193 0.094215 -0.091978 -0.27966 0.36019 -0.19924 -0.079042 -0.17718 -0.49125 -0.38634 0.41238 -0.10529 0.29847 -0.42713 -0.42741 -0.13354 -0.25808 -0.22729 -0.14235 0.18019 -0.36647 -0.41706 -0.33393 0.068788 -0.10807 0.27632 0.10259 -0.18204 0.26111 -0.339 0.36379 -0.31205 -0.082862 -0.66892 0.19113 -0.37353 -0.01255 -0.11915 0.31214 0.15322 0.25938 -0.36648 0.068955 -0.37512 0.17054 0.1868 0.29973 -0.21128 0.45741 0.15384 -0.22931 0.27204 0.45889 -0.13925 -0.029827 0.26449 -0.26262 -0.083784 -0.015666 0.049751 0.2217 0.34009 -0.16009 -0.096385 0.29436 -0.28371 -0.23687 0.10116 -0.36772 0.30085 -0.33859 -0.077496 -0.11382 -0.11977 0.050227 -0.060083 0.0012134 -0.14075 0.074248 -0.027435 0.16639 -0.15049 0.21971 -0.15509 -0.32477
mile -0.14254 -0.13732 0.063859 -0.015834 -0.6353 -0.010989 0.2657 0.065922 0.0016851 -0.026206 -0.32873 0.24101 -0.47007 -0.26806 -0.17337 -0.18888 0.29574 -0.35441 -0.099283 0.12429 0.0017761 0.2658 -0.0022622 0.15023 0.3373 0.39646 0.42911 0.22912 -0.027641 0.088677 0.10256 -0.35343 0.19058 -0.29051 0.023062 -0.21858 -0.15428 -0.33506 -0.15173 -0.062377 -0.008369 0.25703 -0.2072 0.30136 -0.30837 -9.6622E-4 0.4274 0.49559 0.29793 -0.13753 -0.25634 0.051894 0.11976 0.19104 -0.37101 1.0538E-4 -0.23418 -0.38303 0.032851 -0.31905 0.059357 0.29715 0.1524 -0.37599 -0.0039696 0.035859 -0.23204 0.2657 -0.28588 0.13436 0.12431 0.059908 -0.58809 -0.49584 -0.535 -0.25197 -0.31107 0.24529 0.5337 -0.1405 -0.094536 -0.13763 0.096785 0.24698 0.062433 0.18246 0.32599 -0.37894 -0.2493 0.049474 0.27485 -0.09727 0.16178 -0.10525 -0.023083 -0.30628 -0.30327 0.40627 0.49272 -0.11825 0.11579 0.20399 0.31692 -0.18272 0.097751 -0.16439 -0.19431 -0.23166 0.041693 -0.011431 0.17504 0.27578 -0.024781 -0.12539 -0.33381 -0.088009 0.15355 0.11302 0.038955 -0.29982 -0.15542 0.2064 0.097338 0.1774 -0.19694 -0.1437 -0.030021 -0.029662 -0.11083 0.016944 0.61498 0.010265 0.56378 -0.084191 -0.27131 0.26761 -0.33601 -0.06918 -0.022806 0.32888 -0.11757 0.17139 -0.245 0.43706 0.018887 -0.47696 -0.14648 -0.39967 -0.54069 0.23331 -0.092008 0.040111 -0.36461 0.0042628 0.049309 0.31188 5.9136E-4 0.16457 -0.25994 -0.23538 -0.27221 -0.095739 -0.18971 0.35647 -0.31916 -0.32012 -0.33851 0.3741 0.086319 0.0014854 0.4239 0.41543 -0.66265 -0.20246 0.78268 0.54162 0.24271 0.063752 -0.10767 -0.31722 0.45891 0.13473 -0.2535 0.17727 -0.21659 -0.11002 0.54198 0.27523 0.23565 0.38829 -0.18877 -0.31958 0.18288 -0.37838 0.38756 0.097519 -0.25878 0.32087 -0.17501 0.46987
airport -0.32632 0.052157 -0.027091 0.78214 -0.39642 0.058687 0.031338 0.12857 0.15047 -0.23459 -0.1215 -0.42675 -0.36224 -0.022237 0.26963 0.21149 0.67699 -0.16813 -0.3035 -0.11431 0.065693 -0.048587 0.25051 -0.21387 -0.19145 0.58281 -0.13621 -0.21045 0.14242 0.125 0.16314 -0.19228 -0.28273 0.21895 0.036682 -0.24919 -0.024113 -0.43286 0.21808 -0.096782 -0.21983 0.20047 -0.021512 -0.083669 -0.30228 -0.039865 0.39012 0.59918 0.21673 0.23421 -0.21976 -0.017861 0.27848 0.72205 -0.0032631 -0.19035 -0.24216 0.25695 -0.15667 0.12865 0.31787 -0.23014 -0.28007 -0.45165 0.02662 -0.16319 -0.13002 -0.029475 -0.15144 0.13927 0.39633 -0.034351 -0.024587 -0.33809 -0.34058 -0.24028 0.17588 0.18005 0.54825 0.029629 -0.083994 -0.10813 -0.058592 -0.19519 -0.22076 0.48693 0.44466 0.30179 -0.067127 0.21054 0.37133 -0.41807 -0.11448 -0.18065 -0.20534 -0.1616 -0.061452 -0.17226 0.34681 0.16219 0.48885 0.25906 0.19874 0.12704 -0.13301 0.20018 -0.53928 -0.4979 -0.31378 -0.23566 -0.40241 0.029935 -0.39611 0.050833 0.094755 0.32502 0.33312 0.3171 -0.1913 -0.14586 -0.013281 -0.50205 -0.21067 -0.078918 -0.096793 0.09002 0.0024644 -0.32153 -0.042116 0.25985 -0.34048 -0.010523 0.0056398 0.1314 -0.049143 0.13731 -0.29849 -0.43023 0.036388 0.2647 0.29632 0.38733 0.044512 0.32898 -0.15819 0.52543 -0.13373 0.42306 -0.41032 -0.41664 0.083831 -0.11311 0.060126 0.16371 -0.4318 0.56388 -0.61118 -0.33343 -0.17134 -0.27076 0.12514 0.14577 0.11835 0.09643 0.29824 -0.21157 -0.38313 0.023243 0.10438 0.20604 0.30346 0.1482 -0.17995 -0.36386 0.13227 0.10562 -0.38608 0.22278 0.32948 0.11532 0.62661 -0.074236 -0.069094 0.47843 0.058207 -0.35443 0.045656 -0.40998 0.016147 0.12992 -0.16844 -0.255 0.11303 0.062916 0.32899 0.10421 -0.44737 -0.12176 -0.035471 0.39019
population 0.30787 -0.38828 0.19015 0.032938 0.15758 0.37482 -0.14679 0.39526 0.086517 -0.017833 0.039865 0.072308 0.18551 0.11317 0.38905 -0.49349 0.36807 -0.047316 -0.082258 0.096475 0.15361 -0.41404 0.071187 -0.3034 -0.067255 0.27472 0.49644 0.071968 0.045794 0.039545 -0.20452 -0.18046 -0.020242 0.098704 0.27022 -0.020194 -0.33346 0.041076 -0.1467 -0.17017 -0.15669 0.1778 -0.3077 0.17915 0.16711 -0.28787 0.91828 0.57846 0.22335 0.44388 -0.32963 0.12512 0.64081 -0.11689 -0.088063 0.48297 0.22281 -0.99359 0.054568 0.13514 -0.11815 0.043195 0.26468 -0.0017053 -0.084574 0.12598 -0.065064 -0.045542 0.019726 -0.11671 -0.17327 0.034206 -0.25974 -0.11687 -0.056315 -0.18807 -0.10377 0.18007 0.39627 -0.071059 -0.019825 -0.28271 -0.35016 0.013546 0.031048 -0.28778 0.16075 0.054509 -0.036686 0.095524 0.12581 -0.15454 -0.035334 -0.47778 0.29093 0.26122 -0.46642 0.06784 -0.20795 -0.23775 0.53178 0.037117 0.084451 0.16997 0.025227 0.028947 0.040801 -0.11142 0.39462 -0.019614 0.10986 0.23072 -0.013552 -0.22139 -0.0057876 -0.14292 0.13831 0.27025 0.026061 -0.60059 0.063242 0.16252 -0.023651 -0.23916 0.032809 0.12761 0.079188 -0.097027 -0.26443 0.064993 -0.21659 -0.013885 0.22713 -0.080042 -0.18063 -0.26935 -0.14974 0.33585 -0.2151 0.10226 -0.19893 -0.33167 0.097021 0.35897 0.13205 -0.24785 -0.10322 -0.19846 -0.54249 0.166 -0.17444 -0.43552 -0.46773 0.3195 0.21532 0.14805 -0.33777 -0.38519 -0.082319 -0.20304 0.26952 0.31771 0.045058 0.071923 -0.47329 0.2507 -0.31043 -0.22339 -0.37013 0.28666 0.12276 0.080713 -0.032566 0.092396 -0.09826 -0.09063 -0.22178 0.06271 0.37973 -0.28812 0.18775 0.063952 0.014187 0.19736 -0.020675 -0.23738 0.11228 -0.23444 -0.18065 -0.12469 -0.30736 0.28781 0.2565 0.32301 0.19816 0.34045 -0.28266 0.12204 0.0050193 0.17366
planning -0.15364 -0.052152 0.087049 0.7333 0.24131 0.18964 -0.17686 -0.087525 0.12588 -0.1393 -0.30056 0.27734 0.16583 -0.21083 0.22816 -0.060287 0.42031 0.049771 0.1678 0.088025 -0.14042 0.18234 -0.24153 -0.061765 -0.048726 0.025608 -0.037157 -0.15634 0.27456 -0.20462 0.17133 -0.33695 0.21248 0.067332 0.11778 -0.44465 -0.1085 -0.14128 0.097062 -0.2206 -0.11438 -0.088829 -0.10649 -0.04627 0.12054 0.024995 0.16836 0.10731 0.049654 0.19885 0.30307 -0.28491 0.10745 -0.19857 -0.20587 -0.046619 0.36521 -0.0083474 0.017816 0.077813 0.15302 0.051564 0.18889 0.26675 -0.51582 0.17354 0.3064 0.18247 0.16592 0.17147 -0.036668 0.48953 0.23393 -0.22638 -0.16033 -0.063968 -0.082556 0.26718 0.034743 0.014917 0.031397 -0.064935 0.17498 -0.066854 -0.21202 0.056618 0.10303 -0.012576 -0.21082 0.011852 0.37387 0.050264 -0.023047 0.0073885 -0.17267 -0.16785 -0.12481 0.11653 -0.10495 0.13287 0.10013 0.083351 -0.15013 -0.10614 0.37678 0.17985 -0.051409 -0.25822 0.049021 -0.25637 -0.11315 -0.61216 0.079751 -0.091884 0.17232 -0.039109 -0.32035 -0.16135 -0.10229 0.22921 0.014421 -0.34937 -0.090169 0.31249 0.051989 0.21703 0.15638 0.0060566 -0.015304 -0.50604 -0.039464 -0.036578 0.075688 -0.26814 -0.037323 -0.27846 -0.28193 -0.24375 -0.035509 0.02577 0.045511 0.14349 -0.21188 0.13617 -0.29917 0.19036 -0.10625 -0.011575 -0.35056 0.0044334 -0.31129 -0.36792 0.10188 0.03888 -0.038044 0.20402 -0.29631 -0.070021 -0.24568 -0.11482 0.01007 0.056928 -0.12867 0.16492 0.35905 -0.19925 -0.073897 0.026918 -0.045564 0.069378 0.34161 0.21358 -0.027069 -0.22792 -0.28492 -0.029462 0.10511 -0.017716 0.38477 -0.06189 0.22658 -0.15644 0.063351 0.10934 0.14127 -0.05193 -0.089224 -0.035964 0.18038 -0.092257 -0.088246 -0.072105 0.25658 0.094398 -0.037939 -0.090105 -0.34447 -0.093111 -0.10886 0.15101
canyon -0.1324 -0.1231 -0.011813 0.10222 -0.43195 -0.22364 0.55074 0.017036 -0.15682 -0.037278 0.029874 0.03473 -0.0098224 -0.080114 0.19636 0.17022 0.18499 -0.4577 -0.32152 -0.17098 0.078309 -0.0056829 -0.24253 -0.19621 -0.022288 -0.022517 0.11246 0.68192 -0.2433 -0.1044 -0.14314 -0.38652 0.095828 0.09496 0.046714 -0.19779 0.15975 -0.39272 0.072747 -0.2377 -0.29095 0.19469 -0.40767 0.62391 -0.34644 0.10042 0.552 0.42333 0.3828 -0.53676 -0.39876 -0.11764 0.29456 0.047077 -0.019606 0.43846 0.26187 -0.50033 -0.083667 0.1567 -0.13029 0.1875 0.43017 -0.4386 0.12857 -0.043891 -0.57534 -0.1927 -0.3973 -0.03614 0.18347 0.022201 -0.60145 -0.34482 -0.18388 -0.37011 -0.37041 0.042953 0.44347 0.2684 -0.14495 -0.063216 -0.050234 -0.26687 -0.084326 0.23873 0.12295 -0.32618 -0.1895 0.34463 0.6827 0.58803 0.20012 0.10095 -0.12325 0.51938 0.11489 0.29691 0.2805 0.20945 0.1648 0.22969 0.50087 0.14207 -0.023581 -0.12847 -0.29126 -0.33865 0.011302 0.094828 0.014062 -0.1515 -0.024439 0.13621 -0.32095 0.29712 0.16686 -0.14439 -0.20541 -0.41272 0.13271 -0.12535 -0.13953 -0.092846 0.052461 0.34774 0.12679 -0.084202 0.11334 0.11271 0.40528 -0.26171 -0.10332 -0.18916 -0.34348 0.17073 0.11024 -0.12995 0.097473 0.26264 -0.31701 -0.083081 -0.2147 0.26265 0.1365 -0.20169 -0.033741 -0.10067 0.21128 0.13884 -0.10077 0.0060136 -0.299 -0.35679 0.30396 -0.11032 0.19676 -0.15635 0.013368 0.43137 -0.25095 -0.13975 -0.29503 0.58974 0.16938 -0.16551 -0.071559 0.46347 0.2287 0.21233 0.014916 -0.080108 -0.1647 -0.57791 -0.0070597 -0.2938 -0.27928 0.38392 0.31564 -0.081074 0.55902 0.029994 0.015703 0.48813 0.13062 -0.037691 0.024433 0.19393 0.48814 0.16883 -0.68322 -0.73537 0.37987 -0.66393 0.79359 -0.29804 -0.25175 0.2556 0.33881 0.49937
delay -0.14466 -0.054141 -0.13699 0.42237 0.16233 0.52493 -0.18886 -0.10295 -0.19144 0.0049786 -0.34406 0.24525 0.24149 -0.30603 0.23864 0.17563 0.69006 -0.1128 0.032355 -0.013797 -0.032583 0.080117 -0.084396 -0.62144 0.33794 0.17103 0.45707 -0.066126 0.031767 -0.031377 -0.17623 0.20801 0.13139 0.18176 0.0065506 -0.24576 0.16216 -0.10024 0.32628 -0.22047 -0.20892 -0.11226 -0.07948 -0.16209 -0.19868 0.42247 0.55169 0.52586 0.045881 0.093069 0.07603 -0.11728 -0.29207 0.25014 0.21237 -0.032199 0.31629 0.13792 0.11651 -0.14827 -0.24543 0.28445 0.12932 -0.25122 0.010355 0.1051 0.33677 -0.068376 -0.18242 0.23188 -0.19392 0.34692 -5.3432E-5 0.168 -0.5509 0.017038 0.24538 0.08463 0.17008 -0.04155 0.30228 -0.13689 0.27988 0.16262 -0.34004 0.055089 -0.12705 0.063833 0.044272 0.12715 -0.21762 -0.23528 0.15566 -0.35921 -0.17621 0.1246 -0.14515 -0.30223 0.36075 0.14961 0.13598 0.39233 -0.070412 -0.50712 -0.48788 -0.012987 0.093078 -0.27015 -0.21989 0.28434 0.097322 -0.42681 0.084983 -0.056156 0.21553 -0.022866 -0.22304 -0.049091 0.14529 0.15324 -0.32177 -0.37277 0.0047138 -0.37347 -0.28947 0.025216 0.30443 -0.016049 -0.025307 -0.40217 0.055439 -0.1782 0.25434 -0.25747 -0.1588 -0.29324 -0.35047 0.070156 0.019204 -0.0027214 0.082217 -0.11745 -0.33191 0.2758 -0.18048 0.29433 -0.016663 0.45929 -0.37108 -0.022744 -0.28825 -0.067626 0.11901 0.056584 0.041457 0.080998 -0.64022 0.21626 -0.20307 -0.1133 -0.12826 0.18387 0.011844 0.32628 0.34077 -0.03426 0.26731 0.11429 0.29165 -0.092656 0.11593 0.10341 0.16472 -0.17916 0.013043 0.28886 0.11575 0.01892 0.26175 0.35654 -0.055452 -0.19592 0.054669 0.065168 0.45254 -0.014171 -0.37492 0.15249 0.14324 0.10061 -0.25251 0.074063 0.19837 0.46933 -0.47215 0.0037445 -0.10497 -0.061672 -0.11993 -0.25504
size 0.05137 0.086063 0.37486 0.42729 -0.41676 0.02646 0.048151 -0.27226 0.30754 0.22529 -0.29257 0.37849 -0.15847 -0.048473 0.20867 -0.030114 -0.012483 0.096233 -0.22866 0.075778 0.18576 -0.038285 -0.13065 -0.45097 -0.034613 0.10479 0.43083 0.21073 -0.23945 0.30554 0.050864 3.6188E-4 -0.02032 0.28389 0.38652 -0.37183 -0.045228 0.09374 0.16417 -0.24498 0.11438 0.073972 -0.4356 0.31971 -0.22928 0.0077063 0.57604 0.4204 0.065427 0.23086 -0.063932 -0.086776 0.0064343 -0.28684 0.35148 -0.047623 0.19852 -0.65083 0.0091983 0.2176 -0.26763 -0.16695 -0.079854 -0.29977 -0.31461 0.22619 -0.023095 0.18185 -0.21894 0.32295 -0.14827 -0.020436 -0.37788 -0.057069 -0.068669 -0.2643 -0.056575 0.19268 -0.20555 0.23914 -0.47393 -0.05003 -0.22695 -0.13305 -0.014732 0.5493 0.0089658 -0.16552 0.07019 -0.30273 0.20021 0.35885 0.19676 -0.34196 -0.041245 -0.0022294 -0.33088 -0.068659 0.24633 0.31442 0.19609 0.21265 -0.14716 -0.26209 -0.1186 0.01576 -0.12912 -0.029581 0.59831 0.12127 -0.25743 0.2201 -0.11515 0.036131 0.36611 -0.091115 0.079465 0.10122 0.2271 -0.28045 0.11799 0.13621 0.11647 -0.072131 0.030479 -0.013225 0.1808 0.099326 -0.17217 0.0052689 -0.17994 -0.24952 0.18113 -0.076814 -0.41937 0.092744 -0.11614 0.12098 -0.24486 -0.063545 0.13205 -0.015128 -0.27504 0.13109 -0.24343 -0.01677 0.14824 0.086361 -0.2275 0.26949 0.10132 -0.19195 -0.13125 0.032045 0.2097 0.076412 -0.06282 -0.17207 0.081482 0.034872 0.24945 0.42585 -0.52906 -0.15354 -0.29211 0.078795 0.012758 -0.026056 -0.13145 0.54752 0.055813 -0.17798 -0.14081 -0.084021 -0.23182 0.027932 0.077526 0.27669 0.4882 -0.42056 0.29107 0.0034647 0.33692 -0.22257 -0.22051 -0.1085 -0.072167 -0.19015 -0.0054519 -0.68697 -0.0018478 0.24906 0.050745 -0.13797 0.081704 0.28882 0.18839 -0.0052775 -0.2541 0.060531
peace 0.19187 0.023293 0.14954 0.43899 0.5209 -0.071136 -0.06143 0.48631 0.008377 0.34202 0.41549 -0.01783 -0.050539 0.14937 0.25893 -0.039616 0.22058 -0.48846 -0.31461 0.21591 0.010266 -0.39362 -0.14056 -0.35801 -0.058543 0.11812 0.28735 0.13757 -0.1097 0.068345 -0.080174 -0.44098 0.77243 -0.47411 0.06846 -0.30738 -0.059177 -0.27334 0.018285 0.27155 -0.24588 0.014503 0.36976 -0.26373 -0.038116 0.045611 0.74084 0.44564 0.5583 -0.1086 -0.6952 0.20945 -0.23166 0.039398 0.0012939 0.30387 0.055354 0.2038 -0.0081458 0.2425 0.37671 0.1694 0.12316 0.10257 0.045385 -0.12112 -0.078267 -0.28437 -0.60604 0.1778 -0.11919 -0.089573 -0.54796 0.10291 -0.24243 -0.18605 0.47128 -0.099855 0.25039 -0.51825 -0.23517 -0.019543 -0.11534 -0.086865 0.17695 0.031866 -0.32604 0.095526 -0.51918 -0.37959 0.18509 -0.39413 0.098223 0.0065014 0.037441 -0.017983 0.31165 -0.58657 -0.15292 0.51191 -0.02794 -0.44099 0.13057 0.089703 -0.34081 0.27972 -0.21797 -0.24847 -0.33525 0.0072133 0.28594 -0.28044 0.22649 0.041148 -0.47026 0.020488 -0.21444 0.094633 0.10449 -0.18032 0.092049 -0.0026246 -0.31075 -0.089365 -0.54495 0.64453 -0.17056 0.057878 -0.31077 -0.19002 -0.047641 0.23947 -0.3474 0.14364 -0.14763 -0.14706 -0.41282 -0.32178 -0.15689 -0.067606 -0.26432 -0.3005 0.005397 0.2955 -0.70144 -0.023346 0.44731 0.34759 -0.17141 0.34052 -0.026863 -0.12444 -0.34694 0.45443 -0.36059 0.38624 -0.27418 -0.030607 0.092345 -0.036328 0.48954 -0.017065 -0.0064854 0.031849 0.21277 -0.02667 -0.23158 0.37382 -0.4237 0.26833 0.21484 -0.16257 0.4627 -0.29111 0.14235 -0.35046 -0.023873 0.47557 -0.26083 -0.38796 -0.29641 -0.55063 -0.0494 0.41959 0.21941 -0.53433 -0.059206 -0.47561 0.20771 -0.010816 -0.45389 -0.81942 -0.094412 -0.23766 0.33661 -0.0058792 -0.056731 0.13942 0.24296 -0.13542
science -0.23471 0.085896 -0.095557 -0.41849 0.27265 -0.090468 0.2285 0.35786 0.30434 0.11448 -0.35787 -0.17444 -0.11623 0.47986 0.20238 -0.19516 0.059634 -0.20809 0.30562 -0.049517 0.39278 -0.072741 0.39697 0.19551 -0.096055 -0.24905 0.51065 -0.013399 0.0084041 -0.29865 -0.0067897 0.29596 -0.10272 -0.17955 -0.41033 -0.23848 -0.16724 -0.33611 -0.15917 -0.091819 -0.15048 -0.083888 -0.24058 -0.036365 0.17695 0.30634 0.26458 0.36134 -0.17818 -0.35044 -0.066725 -0.25829 0.26572 -0.3961 -0.073649 0.43387 -0.15494 -0.66299 0.011535 0.3294 -0.011665 0.2525 -0.47558 0.089941 -0.21207 -0.10075 -0.0261 0.060944 0.010218 0.56507 0.22641 0.26971 -0.41024 0.13672 -0.67488 -0.27976 0.12229 0.1511 0.45355 0.17244 -0.50666 -0.26855 -0.14701 -0.38207 0.2366 0.053438 -0.096454 0.20965 -0.38021 -0.085019 0.15228 0.46111 0.50148 -0.22846 0.14366 -0.11906 0.27588 -0.48372 0.22031 0.2702 -0.16817 0.38455 -0.22912 0.1284 -0.026718 0.52124 -0.15148 -0.56383 0.27109 -0.21212 0.18779 -0.68524 0.057802 -0.054772 0.28184 -0.12668 -0.11783 -0.21135 -0.051164 0.23813 0.021232 -0.001026 -0.12858 -0.047038 0.21058 -0.011984 -0.1562 0.056581 0.1077 0.073805 0.009656 0.12367 -0.088317 -0.28999 0.33673 -0.29125 -0.2055 0.32942 0.029656 -0.34079 -0.030354 -0.3347 0.076573 -0.02045 -0.31897 -0.064638 0.10959 -0.010016 -0.62018 0.44926 -0.34229 -0.24118 -0.21443 -0.16511 0.30645 0.43872 -0.047653 0.095375 -0.32946 -0.17638 0.1054 0.005519 -0.27626 -0.10485 0.19224 0.073281 0.23552 0.28931 0.072875 0.27493 0.20934 -0.098424 0.45526 -0.074758 -0.2251 -0.027633 -0.012488 0.075336 0.13537 -0.0031061 -0.31826 -0.24798 0.05608 0.34487 0.047203 0.13421 0.28481 0.15199 0.026498 -0.084166 -0.23718 -0.12284 -0.1561 0.20403 0.099863 -0.019138 -0.53673 -0.061067 -0.20141 0.2335
dawn 0.02281 -0.35399 0.11186 0.057762 0.11036 0.033212 0.26274 2.4708E-4 -0.33928 0.03911 0.12332 0.45151 -0.37634 -0.087661 0.077051 0.51857 0.54696 -0.082433 0.1633 0.050031 0.093736 0.079136 -0.57651 0.11933 -0.23801 0.38332 -0.015261 -0.0086663 0.030887 0.12398 0.30878 0.090822 -0.3524 -0.24414 -0.58869 -0.2285 -0.013552 -0.15722 -0.043712 -0.30311 -0.10902 0.14629 0.25884 0.18086 -0.3952 0.3379 0.4793 0.57158 0.60829 -0.043007 0.1766 0.17607 0.23682 0.10191 0.31032 -0.50703 0.11821 -0.30036 0.25575 -0.23811 -0.13616 -0.049605 0.1455 -0.41103 -0.11169 0.14818 0.030631 0.15699 -0.14511 -0.23425 -0.36622 0.18241 -0.2442 0.21163 0.055553 -0.067218 -0.004401 0.10287 0.65462 -0.18701 -0.47883 0.072723 0.046519 0.35288 -0.26384 -0.15965 0.22088 -0.79455 -0.038075 0.11616 0.17599 0.33749 -0.26262 -0.20967 -0.095664 -0.025733 -0.050145 -0.15823 0.33947 0.52941 0.12718 -0.036286 0.18104 0.28461 0.34033 -0.3298 -0.16625 0.079511 -0.042511 0.32866 0.12793 0.28798 0.0070268 0.10374 -0.12108 0.28146 0.1301 -0.25971 0.40223 -0.12789 0.17788 -0.063437 0.19455 -0.0033143 -0.05297 0.062505 -0.33747 0.034808 -0.13737 0.15346 0.29724 0.43758 -0.24469 0.005691 -0.033819 -0.17443 -0.15381 -0.4108 0.25552 0.11993 -0.28093 -0.29835 -0.20098 -0.0604 0.13859 -0.071179 -0.46248 0.13563 -0.063635 0.29343 -0.3266 -0.22612 -0.24871 0.12869 -0.20481 0.35174 -0.2481 0.41307 -0.059436 -0.019101 0.35656 0.30574 -0.25837 0.2 0.26655 -0.53892 -0.17208 0.23581 -0.24475 0.03596 -0.15584 -0.093574 0.021708 -0.45576 -0.027897 0.31428 -0.040803 0.086017 0.38456 -0.037773 0.56874 -0.26383 0.033447 -0.13232 0.37661 -0.28707 0.21437 0.038441 0.27109 0.092686 -0.82335 -0.29944 0.05888 -0.28244 0.47779 0.024627 -0.51985 -0.025052 0.12403 -0.021149
brother -0.076943 0.090822 0.21768 -0.042603 0.55636 -0.23805 -0.11319 -0.11794 0.1082 -0.34436 -0.084214 0.24219 0.14933 -0.004163 -0.070952 0.21162 0.025424 0.089462 -0.076729 -0.074685 0.011772 0.327 -0.0083328 -0.23565 0.068512 0.091776 -0.085393 -0.14655 -0.29771 0.0054038 -0.15388 0.066221 -0.023942 -0.10946 -0.16944 -0.25533 -0.17047 0.24428 -0.2255 0.44107 0.11735 0.29239 -0.098967 0.50627 -0.10832 0.066844 -0.26657 0.015759 0.17155 -0.15745 0.070027 0.17843 0.2631 0.29336 -0.0024749 -0.31807 0.3004 -0.38469 0.20972 -0.061511 0.17442 -0.20568 1.8498E-4 0.24395 0.4298 0.14999 0.26892 -0.078864 0.054712 0.0068939 -0.13028 0.45933 -0.10268 0.14663 -0.28508 0.15999 0.23939 -0.047042 0.25707 -0.17228 0.23205 0.14167 -0.25068 0.25864 -0.26076 0.071419 0.3275 0.086895 -0.13839 0.34436 -0.070909 0.33957 -0.043779 0.098023 -0.62456 0.044234 0.06352 0.08666 0.19404 0.058332 -0.2142 0.45686 -0.029463 -0.55391 0.15292 0.40099 -0.10339 0.15711 -0.3173 0.031564 0.14834 0.076604 -0.35425 0.10247 -0.21668 0.35145 -0.061628 0.31004 -0.15957 -0.15357 0.21791 0.13934 0.26548 -0.23483 -0.049056 0.2919 0.29324 -0.26202 -0.12933 0.085507 -0.20503 0.31354 -0.146 -0.06565 0.12857 0.43986 -0.40208 0.094619 -0.033698 0.092425 0.055279 0.13535 -0.07774 -0.033725 -0.19157 -0.027821 0.023919 -0.21839 0.063611 0.44521 -0.021264 -0.44812 -0.15449 -0.082837 0.054622 0.35144 -1.0078 -0.14554 -0.26546 -0.39173 0.39452 -0.17145 -0.089555 0.45971 0.0047848 -0.01274 0.21012 0.14532 -0.20371 0.06322 0.56849 0.28524 0.0052158 -0.30223 -0.0083051 -0.33553 -0.25385 0.35362 0.19626 -0.016682 0.19631 -0.35632 -0.06895 -0.13008 0.30756 -0.24296 0.1712 -0.13873 0.65837 -0.23962 -0.40451 -0.14786 0.24994 0.058163 0.46804 0.4249 0.054161 0.10617 0.072839 0.43151
wine -0.0063236 -0.16126 -0.20508 0.12193 -0.20648 0.2302 0.036472 -0.14242 0.42793 -0.018703 0.23047 -0.063448 0.28468 0.1314 0.044886 0.2503 -0.091986 0.1504 -0.15262 0.28058 -0.03888 0.2693 -0.076122 0.26828 -0.53396 -0.084767 0.1023 -0.13663 0.078226 0.086867 0.026238 -0.34309 -0.037329 -0.21129 0.080916 0.032084 0.32656 0.06144 -0.24949 0.13362 -0.19455 -0.38269 0.053633 -0.062982 0.034158 0.55949 0.45888 0.44605 0.66545 -0.37318 0.048541 0.33424 0.14818 0.14534 0.71119 0.25168 0.44101 -0.85412 -0.20365 0.37506 -0.15769 -0.18622 -0.51794 -0.59708 0.18536 0.28319 -0.018574 -0.20291 -0.090522 -0.31973 0.40904 -0.055184 -0.14705 -0.086329 -0.081668 -0.22049 0.34115 0.042285 0.27934 0.28438 -0.52487 -0.0061213 0.28626 -0.12127 -0.11851 0.37768 0.20624 -0.0079983 -0.34064 -0.16391 0.54958 0.4893 0.18655 0.23004 -0.75492 -0.071542 -0.26606 -0.0070205 0.65036 -0.059085 -0.01459 0.17097 0.42322 -0.12856 -0.04249 0.3035 0.30188 -0.40849 0.17593 -0.22518 0.1379 -0.055595 -0.072315 -0.65363 -0.078213 -0.24748 0.21892 0.44654 0.46901 -0.055344 -0.0043675 -0.55567 -0.19113 -0.054846 -0.19945 0.096328 0.34771 0.15513 -0.12449 0.11515 0.12764 0.25018 0.30294 -0.090213 0.14898 0.20223 -0.15257 -0.20683 -0.17261 -0.041532 0.050253 0.56186 -0.10495 -0.21321 -0.062912 -0.0062027 0.10046 -0.073849 0.02018 -0.75835 -0.22597 -0.13463 -0.31223 0.16506 -0.33672 -0.22248 -0.20981 -0.15068 0.54418 -0.16877 0.10371 0.27831 -0.20114 0.21852 -0.09558 0.030461 -0.23473 0.019005 0.033168 0.02442 0.3265 0.017828 0.17716 -0.1104 0.41152 -0.42215 0.13111 0.29878 0.41133 -0.69591 -0.01283 -0.038588 -0.13844 0.20744 0.1867 0.23219 -0.34689 -0.1064 0.32954 -0.041381 -0.15665 0.1706 0.20067 -0.29425 0.23411 -0.26148 -0.32414 0.23086 -0.097105 0.11943
object -0.107 0.03372 -0.18998 0.10694 -0.039015 -0.1307 0.10559 0.15716 0.1482 -0.30769 -0.15599 0.14023 0.10511 0.040921 -0.27984 0.17858 0.29707 -0.14621 0.083159 0.11014 0.16034 -0.14533 0.039061 -0.20078 -0.33598 0.12987 0.32712 0.017017 0.096116 0.032435 0.21957 0.09082 0.23438 -0.045955 0.26759 -0.23275 -0.20064 -0.25072 0.0053663 -0.32613 -0.28122 0.38566 -0.1299 0.47111 -0.051023 0.31889 0.44282 0.80931 0.4339 0.080116 -0.47009 0.15204 0.3056 0.095828 0.4215 0.10208 -0.34139 -0.23883 0.17643 -0.21074 0.32896 0.010048 -0.17513 -0.11518 -0.041276 -0.083482 0.55549 0.27923 0.0080681 0.093252 0.071186 0.11049 -0.031112 0.25333 -0.4126 0.061144 0.29314 -0.097409 -0.19106 0.1547 0.13614 -0.48517 -0.048365 -0.018234 -0.20183 0.17042 0.42197 -0.13417 -0.094086 0.076915 0.34413 0.4862 0.21606 0.2051 -0.29916 0.12139 -0.1246 0.26655 0.54825 0.36637 0.1112 -0.37446 -0.32103 -0.49255 -0.066582 0.16106 -0.20216 -0.025093 0.036332 0.14266 0.25362 -0.43832 0.14406 0.27443 -0.1149 0.12674 0.16256 -0.025618 0.09156 -0.063038 -0.034913 -0.06787 0.31668 0.10282 0.020445 -0.23506 -0.19281 0.12374 -0.0040173 -0.30961 0.055661 0.34634 -0.032816 -0.055808 -0.25818 -0.0052108 0.14037 0.03458 0.067979 0.061596 0.0073526 -0.020724 0.0079262 0.17931 -0.16504 -0.17434 0.024937 0.11109 -0.058218 0.49605 -0.095008 -0.050175 -0.27003 0.32047 0.31041 0.32909 -0.30066 0.06725 -0.31314 -0.31417 0.18798 -0.14436 -0.26667 -0.17508 -0.050457 -0.14567 0.044028 0.4828 0.16244 0.09894 -0.23148 0.069765 -0.17013 0.0053807 -0.067589 -0.092945 0.35978 0.17474 -0.13117 -0.0968 -0.040742 -0.13649 0.29328 0.15333 -0.17938 0.02936 0.17173 0.27877 0.099759 0.084863 -0.11982 -0.083498 0.013864 -0.23265 -0.026611 0.065731 -0.17351 0.02962 0.069301 0.060345
attitude 0.099448 0.41911 0.33051 0.15004 -0.014719 -0.03545 0.034235 0.4212 0.54024 0.0049073 0.029989 0.12134 -0.069663 0.10649 0.23438 0.15047 -0.26454 -0.29709 -0.27987 0.55548 -0.016431 -0.16913 -3.6548E-4 0.011103 -0.26178 -0.34564 -0.008833 -0.47268 0.12917 -0.064486 -0.14947 -0.11249 -0.22906 -0.037347 -0.083297 -0.057132 -0.30639 -0.18969 0.049836 -0.17048 0.30193 -0.060423 0.18394 -0.26288 -0.12324 -0.2701 0.48583 0.3002 0.37438 -0.33775 -0.089563 0.20104 0.24951 0.04739 0.55373 0.22068 -0.031226 -0.29049 0.084998 -0.10552 0.15243 -0.17184 0.0041121 0.0051421 -0.17896 -0.14396 0.13934 0.15013 0.070163 0.51284 -0.34295 0.058069 -0.24456 -0.012303 -0.19662 -0.31828 0.47634 -0.28354 0.32211 -0.15323 -0.14428 -0.01165 -0.089119 -0.27231 -0.03195 0.34857 0.25123 0.016755 0.16416 0.06967 -0.058406 0.33747 -0.13922 -0.38493 -0.24051 -0.24434 -0.30944 -0.062685 -0.0066158 0.037752 -0.022502 0.004977 -0.1145 -0.42407 0.11628 0.12888 -0.021614 -0.1433 0.13193 0.30139 -0.2411 -0.26959 0.078906 -0.0416 -0.14457 0.1709 -0.28709 0.3097 0.0086545 0.36636 0.35744 -0.052686 0.36895 -0.22711 -0.11395 0.10373 -0.1063 0.64488 0.042664 -0.21837 0.15573 0.010998 0.040195 -0.17493 -0.19679 -0.22367 -0.092026 -0.065636 -0.22969 -0.097596 0.35932 -0.1584 -0.043463 0.4458 -0.3141 -0.17565 -0.29382 0.19709 -0.35312 0.077307 -0.24057 -0.22252 -0.29367 0.37855 0.39939 0.029131 -0.17185 -0.065831 -0.16653 0.13952 0.12309 0.34927 -0.45466 -0.1955 0.10747 -0.041163 -0.025652 0.030859 -0.1384 0.32762 -0.060702 0.18413 -0.11668 -0.040495 -0.079719 -0.018511 -0.055195 -0.16232 -0.1736 0.31223 -0.094287 -0.18102 0.084439 0.061029 -0.18946 -0.4613 -0.13527 -0.03054 0.35497 -0.20058 -0.05738 -0.043386 0.072912 0.17112 0.48467 -0.1495 0.24282 0.44214 -0.28002 0.10345
treatment -0.16844 0.13647 0.077557 -0.033304 0.38962 0.25662 0.023735 0.072983 0.18309 0.33806 0.23858 -0.21745 0.055607 -0.34084 0.5987 -0.075209 0.5305 -0.27211 -0.071128 0.24295 0.19038 -0.3698 -0.19338 -0.30919 -0.019287 0.16992 0.40166 -0.3494 0.17289 0.028211 -0.1039 -0.049486 -0.19518 0.12409 -0.18964 -0.33051 -0.064806 -0.38881 -0.13854 -0.50513 0.04772 -0.012705 -0.12984 0.014161 0.26053 -0.30963 0.061553 -0.056872 0.067513 -0.01563 -0.044232 0.20547 0.25321 0.02886 -0.15146 0.27703 -0.002391 -0.30766 0.35758 -0.18479 0.070888 -0.014251 -3.9506E-4 -0.088624 -0.12808 -0.17269 0.2267 0.045056 0.31701 -0.11607 0.18746 -0.2746 -0.10432 0.060127 -0.34368 -0.25275 -0.086005 -0.11479 0.20366 -0.2837 -0.1357 -0.15908 -0.15756 -0.24236 -0.0040494 -0.054767 -0.13964 0.10193 0.37677 0.16531 0.21412 0.15246 0.13039 -0.7 -0.49731 0.033444 -0.49642 0.10855 0.66357 -0.091184 -0.036685 0.33016 -0.2523 -0.29797 0.12733 0.11287 0.040813 -0.092599 0.056187 0.13328 -0.036516 -0.19776 0.10094 -0.50293 0.11366 -0.10794 0.26102 -0.056564 -0.088058 0.082796 -0.31761 -0.25552 -0.43752 -0.301 -0.15389 0.037396 -0.032937 -0.31124 -0.29151 -0.20633 0.49321 -0.078754 -0.15783 0.44773 0.093294 -0.050467 0.10633 -0.10248 -0.20909 0.093374 0.69479 -0.12844 -0.084589 -0.14073 -0.36021 0.26616 0.11383 0.078417 -0.57845 0.043523 -0.18954 0.15293 -0.17885 -0.26111 0.373 0.46406 -0.10647 -0.13803 -0.15427 0.22986 -0.23113 0.075315 -0.24737 0.50336 -0.2186 0.069827 -6.1635E-4 0.018225 -0.1511 -0.12691 -0.022781 0.4363 -0.13004 -0.29298 0.040635 0.071113 -0.12573 0.026383 -0.0036879 -0.27532 -0.18875 0.11775 -0.10129 -0.051712 0.37024 -0.32938 -0.45354 -0.21065 -0.19339 0.24873 -0.23298 0.043524 0.11126 0.12458 0.23487 -0.36642 -0.16227 0.016156 -0.11274 0.0096448
flight -0.25351 -0.057729 -0.30853 0.41362 -0.36452 -0.093247 0.40191 -0.11554 0.017966 -0.31622 -0.53027 -0.34827 -0.22708 0.063462 0.14087 0.20272 0.59809 -0.54685 -0.050376 -0.10013 0.16532 0.014748 0.15971 -0.31554 0.043604 0.52555 0.28844 0.076795 -0.021161 0.10092 -0.1765 -0.11185 -0.43054 0.07166 0.022948 -0.39542 -0.23405 -0.24573 -0.0074172 0.14421 -0.17542 0.043924 -0.13131 -0.014423 -0.1096 0.032425 0.19937 0.47133 0.23584 -0.062592 -0.10011 -0.011013 0.068986 0.69755 0.24662 0.076093 -0.091646 0.22171 -0.67737 0.028449 5.3781E-4 -0.0098811 -0.3583 -0.15666 0.30361 -0.24554 -0.0023541 -0.060264 -0.20431 -0.17268 0.45544 0.084658 -0.25705 -0.38969 -0.4287 -0.22832 0.29127 0.48433 0.66296 0.31668 0.12282 -0.0083756 -0.44817 -0.288 -0.18106 0.35954 0.31909 -0.073559 -0.0074976 0.10141 0.39468 -0.10086 0.27087 -0.44621 -0.067985 -0.24522 -0.029264 -0.18611 0.5846 0.23592 0.11338 0.023193 -0.051946 -0.1221 -0.18055 0.32321 -0.11142 -0.32145 -0.074437 0.0018094 -0.24598 -0.0011629 -0.068846 0.1716 0.20343 0.44764 -0.36213 0.083514 -0.16411 -0.17983 0.34468 -0.20942 -0.005178 -0.21952 0.017352 -0.20456 0.052322 -0.18263 0.089051 -0.083882 -0.034045 0.039861 -0.24746 0.19279 0.056942 -0.14336 -0.28268 0.091121 0.017991 0.0095766 0.25981 0.10077 -0.092337 0.49525 -0.21015 0.6606 -0.16308 0.46426 -0.3297 -0.26939 0.054324 -0.48439 0.012088 -0.066961 -0.53487 0.46094 -0.72675 -0.38933 -0.24457 -0.013192 0.51771 0.17134 0.11095 0.014794 0.20504 0.26885 0.053446 0.1484 0.18066 0.008777 0.10372 0.022559 -0.27428 0.1346 -0.071438 0.19893 -0.37769 -0.094896 0.51013 0.20422 0.15503 0.018447 -0.20246 0.37714 0.28406 -0.11251 -0.021984 -0.30296 0.068534 0.037531 -0.40271 -0.18432 0.12423 0.30394 0.32667 -0.045371 0.073188 0.01534 -0.048019 0.14034
forest 0.031608 -0.42927 0.15636 0.036801 -0.0025268 0.24049 -0.25312 0.38867 0.1631 0.086107 -0.22336 -0.29002 -0.39797 -0.12171 0.065307 0.17791 0.28064 -0.87095 0.10331 0.083809 -0.074241 0.26041 -0.0036221 -0.21386 -0.22671 0.33157 0.15502 0.43002 -0.22266 0.09775 -0.15384 0.25391 -0.097201 -0.20247 0.033169 0.12078 0.018078 -0.53267 -0.38005 -0.047976 -0.15094 0.29276 -0.32416 0.075523 -0.12726 0.12456 0.72519 0.61916 0.12013 -0.24758 -0.078647 0.35691 0.66497 -0.38098 -0.28449 0.2993 0.50653 -0.57694 -0.14978 0.1994 -0.1275 -0.059409 0.57089 -0.18245 -0.43077 -0.087002 -0.024374 0.080502 -0.19728 -0.075038 -0.029183 0.20539 -0.67943 -0.20882 -0.16839 -0.12052 -0.22038 -0.074018 0.30137 0.47365 -0.3672 -0.012476 0.35162 -0.031823 -0.16167 0.046192 0.20358 -0.55457 -0.061113 -0.33633 0.69415 0.17706 0.17383 -0.013434 -0.054116 0.63935 -0.056627 0.21047 0.41239 0.068475 -0.17323 -0.29478 0.27381 0.14808 -0.073096 -0.055705 -0.47269 -0.2879 -0.094645 -0.12544 0.098231 -0.49374 -0.042553 0.21313 -0.29699 0.24754 -0.22858 -0.26745 -0.042375 -0.35741 0.086954 -0.27074 -0.080907 -0.020199 -0.11814 0.040208 0.14129 -0.29406 -0.12834 0.012172 -0.0094454 0.16191 0.13969 0.10603 -0.23828 0.26274 0.18373 -0.049686 0.39617 0.33344 -0.11934 -0.023598 0.19028 0.13293 -0.25985 -0.091407 -0.13064 0.15481 -0.14571 -0.057711 -0.027429 -0.023791 -0.24395 0.10142 0.3627 -0.21992 -0.23103 -0.25285 -0.080883 0.071693 -0.28394 0.06036 -0.2634 0.20723 -0.10882 0.15683 -0.26806 0.081386 -0.0156 0.1313 0.12221 0.20083 0.2244 -0.27473 0.24596 -0.10811 -0.2041 0.25323 -0.24481 -0.38335 0.42731 -0.22145 -0.16903 0.10108 0.22377 -0.40593 0.15656 -0.023456 0.25903 0.087509 -0.18511 -0.33483 0.50195 -0.45856 0.42337 0.15292 -0.462 -0.27325 -0.027581 0.52357
abuse 0.055931 0.24985 -0.016657 -0.07255 0.3127 0.0091314 0.089897 0.60281 0.093039 0.085866 0.19092 -0.43023 -0.092848 -0.18951 0.33511 0.033635 0.25279 -0.88776 -0.069448 0.1234 0.57899 -0.082947 -0.10375 -0.34901 -0.10863 -0.13145 0.053668 -0.51478 -0.056196 -0.10874 -0.41167 -0.30735 -0.011122 0.40893 -0.0075911 0.015198 0.24671 -0.026133 -0.26636 0.21027 0.22664 0.21307 0.39784 0.4098 0.087158 -1.8254E-4 0.19497 0.098945 0.41813 -0.18029 -0.27897 -0.069459 0.2717 0.25996 -0.39521 0.11893 -0.23195 0.041924 0.070894 0.5489 0.1945 0.01518 -0.086641 -0.16408 -0.14145 -0.0089633 -0.30147 -0.28365 0.60721 -0.19268 0.40113 -0.38865 -0.40145 0.5113 0.18448 -0.1899 0.23204 0.022988 0.12611 -0.32174 -0.092947 -0.017961 -0.25863 -0.0021486 0.038956 0.49388 -0.24359 -0.12663 0.054778 -0.22361 0.1633 0.21888 -0.11749 -0.24821 -0.48994 0.12072 -0.12346 0.34809 0.17596 -0.26692 0.082109 0.070644 -0.31663 -0.50122 0.040809 0.2767 0.31075 0.16769 0.012957 0.3023 -0.04152 -0.12708 -0.30559 -0.36312 0.048955 -0.21693 -0.16672 -0.3845 -0.11227 0.27715 -0.31378 -0.40809 -0.29291 -0.8685 0.06359 0.1579 -0.20123 0.144 0.077429 0.20296 0.21993 0.046391 -0.019294 -0.041707 -0.32446 -0.2164 -0.12962 0.30525 -0.19855 -0.18004 0.11919 -0.41448 -0.081788 0.28228 -0.060723 0.18695 -0.019722 -0.15137 -0.23465 0.19813 -0.34723 0.6172 -0.39173 0.13138 0.33509 0.50127 -0.7352 -0.98193 0.26125 -0.28864 -0.015224 0.041224 -0.63562 0.52275 -0.062302 0.094209 0.26162 0.22576 -0.3831 -0.26242 0.46077 -0.064149 -0.16494 -0.34694 -0.31631 -0.42888 -0.16498 0.18595 -0.25532 0.045426 0.56687 -0.30266 0.1757 0.20033 -0.064853 -0.013627 -0.25739 0.058525 0.34189 -0.35178 -0.60489 -0.035313 0.071792 0.11291 -0.12208 0.15351 -0.30472 -0.22214 0.37393 -0.010773
criterion 0.19213 0.033066 -0.24343 0.079409 0.36898 -0.053541 0.34922 -0.25693 0.3972 -0.32061 -0.033796 -0.16521 0.26662 -0.056729 -0.1344 0.24394 0.17338 0.092117 0.050508 -0.079451 0.080655 -0.05021 -0.076221 -0.09969 -0.1872 -0.25347 0.55625 -0.28788 0.25151 -0.049911 -0.059194 0.19916 0.20989 0.13239 -0.15224 -0.31986 -0.47934 -0.082337 0.28994 -0.0020268 0.085582 0.28034 -0.21649 -0.095451 0.059696 0.12057 0.48917 -0.13634 -0.17414 -0.15959 -0.36288 -0.27187 0.46912 -0.22442 0.044873 0.40575 -0.26339 -0.12291 0.027087 0.045529 0.078669 0.26095 0.010926 0.30961 -0.24928 0.01641 0.35292 0.10971 -0.13611 0.27078 0.17518 -0.062343 -0.31377 -0.16185 -0.26651 -0.17741 0.40975 0.59146 -0.055875 -0.13597 -0.29217 -0.23873 -0.11089 -0.41847 -0.19287 0.61639 0.025912 0.16323 -0.09274 0.065036 0.51495 -0.21338 0.15133 0.10907 -0.22832 0.033329 0.059332 0.43294 0.22658 -0.064138 -0.10005 0.11423 -0.45456 -0.23534 -0.147 0.25798 -0.070764 -0.25082 0.5962 -0.17031 0.18947 0.0048878 -0.12467 -0.23815 0.080887 0.10455 0.11805 0.030204 0.069566 -0.064666 0.0041185 -0.16486 -0.14173 -0.35836 -0.038644 0.046255 0.31186 0.038595 -0.057511 -0.07129 0.049537 -0.12589 -0.21996 -0.24784 0.21852 -0.1285 -0.5069 -0.13377 -0.4424 -0.1541 0.30176 0.035712 -0.091583 -0.10799 -0.14448 -0.10151 0.055733 0.26196 -0.55379 0.2559 -0.085767 -0.39225 -0.019078 0.078321 0.062592 0.1893 -0.13774 0.027356 -0.17711 -0.051252 0.089354 -0.23027 -0.27808 0.060265 -0.2031 -0.12833 0.22484 0.23951 -0.061641 -0.14306 0.3784 0.34036 0.0446 -0.20562 0.13232 0.12925 -0.16032 -0.072159 -0.032638 -0.25025 -0.21278 0.11268 0.1227 -0.061343 -0.083416 0.1087 -0.10515 -0.23344 0.20619 -0.47509 -0.017059 0.12522 -0.16685 0.16303 -0.17702 0.25042 0.070867 0.17855 -0.17653 -0.3649
sea -0.11516 -0.098039 0.08743 -0.030472 -0.38549 0.21328 0.26233 -0.05607 -0.27493 -0.0081881 -0.14248 -0.11943 -0.42895 0.036676 0.66922 -0.30027 0.20208 -0.31946 -0.19212 -0.076612 0.26145 0.44621 -0.057126 0.018541 -0.076229 0.20092 0.33476 0.20618 0.26192 -0.048668 0.040118 -0.38339 0.20085 0.088506 0.12909 -0.39596 -0.18356 -0.20393 -0.08406 -0.10638 0.0028694 -0.3824 -0.14798 0.065732 0.10486 0.12714 0.91071 0.75417 0.18879 -0.1435 -0.08839 0.065514 0.11366 -0.32567 0.19772 0.75379 0.074971 -0.6656 -0.045324 0.58948 -0.22624 0.075721 0.049318 -0.26578 -0.33629 -0.21241 -0.6079 -0.12089 -0.47034 -0.10369 -0.30958 -0.068002 0.05181 -0.064503 0.15862 -0.21627 0.17433 0.13456 0.22196 0.27782 -0.40068 -0.18842 -0.2944 -0.12915 -0.3541 0.30002 0.38448 0.038982 -0.37748 0.10735 0.40395 0.13429 -0.48269 0.13492 -0.24629 -0.024553 -0.22253 -0.11285 0.47347 -0.2028 -0.33712 -0.23804 0.28897 0.03386 0.2631 -0.27796 -0.41858 -0.35113 -0.086961 -0.34492 -0.034838 -0.26971 0.010327 0.24087 -0.30936 0.25489 -0.083903 0.2824 0.10002 0.018519 -0.037586 -0.38107 -0.23407 -0.10679 -0.36322 0.062025 0.29861 -0.072202 0.21795 0.29239 0.17348 0.25685 -0.21374 -0.041662 -0.16518 0.29063 0.1115 0.027519 -0.22704 -0.058807 0.013579 -0.31266 -0.073906 0.011958 -0.29962 0.059682 0.035164 -0.21633 0.22726 0.19512 0.2064 -0.074697 -0.15599 -0.34256 -0.094921 0.37569 -0.17868 -0.029917 0.28767 0.31164 0.067804 0.15163 -0.23136 0.57462 -0.095946 0.50873 -0.24996 0.29752 0.17665 0.26452 -0.28031 -0.21468 0.26412 -0.24316 -0.094103 0.27994 -0.11116 0.23205 0.078623 0.036144 0.36066 -0.084062 -0.0432 0.23931 -0.18149 -0.15295 -0.034129 0.23823 -0.13629 -0.28173 -0.66801 -0.18249 0.086433 0.019774 0.67406 -0.15395 -0.26068 -0.0079624 0.11505 0.3242
dollar 0.12791 -0.11348 -0.18337 0.4779 -0.030838 0.47473 0.32647 0.28813 0.24403 0.26434 -0.40995 -0.16812 0.08544 0.048811 0.39349 -0.047987 0.6091 -0.29617 0.16629 -0.11294 0.29081 -0.11846 0.40314 0.21118 0.36043 0.17485 -0.15281 0.053945 0.53424 0.06578 -0.089338 -0.085562 0.32568 0.07519 0.24446 0.33072 -0.061753 0.2013 0.058761 0.36821 -0.73548 -0.39126 -0.20288 0.13373 -0.57867 -0.010993 0.18042 0.3647 -0.36957 -0.10594 -0.25527 -0.2002 0.45564 -0.31463 0.26399 0.32773 -0.17836 -0.96787 -0.13467 0.15082 -0.090388 0.055182 -0.11993 -0.27648 0.33159 -0.10584 -0.013334 -0.15192 -0.39942 0.25293 -0.54547 -0.071391 0.084137 -0.28707 0.43849 0.20243 0.18989 0.2933 0.34875 0.28085 -0.28881 0.24156 -0.052253 0.27 -0.033457 -0.049479 0.018095 -0.2791 -0.090904 0.13663 -0.34507 0.23356 0.14752 -0.44397 -0.4643 0.036012 -0.047808 -0.42217 0.51074 -0.32043 -0.38876 0.14254 0.1439 -0.15368 0.096042 0.074556 -0.50199 0.19294 0.2776 0.30799 -0.082945 0.054919 0.13061 0.061826 0.18853 0.35302 0.17245 -0.056487 0.0065438 0.33108 0.0076719 0.10932 -0.19647 -0.37818 -0.62837 0.26542 -0.011011 0.63108 -0.060797 -0.048533 0.1438 0.17078 0.29108 -0.12548 -0.15025 -0.023095 -0.094896 -0.66617 -0.22496 0.24446 0.060829 0.037033 0.064451 0.44791 -0.46971 0.68763 -0.37451 0.109 -0.21319 0.14131 -0.093881 -0.11839 -0.42771 0.37647 -0.2304 0.24646 -0.39799 -0.35316 0.036987 -0.27889 0.57878 0.014708 0.38432 -0.062597 -0.31879 -0.57126 0.089545 -0.11496 -0.31871 -0.03632 0.38154 -0.1824 -0.061775 -0.19312 0.19385 -0.22128 0.61819 -0.053729 0.1051 -0.17262 -0.11374 -0.36915 0.068146 0.039201 0.065299 0.46764 -0.24759 0.11582 -0.20846 -0.05618 -0.018368 -0.20144 -0.024113 -0.12537 0.13754 -0.086206 0.53432 0.29223 0.10898 0.079664
example 0.01404 0.13677 -0.057315 0.31619 0.06303 -0.17624 -0.26308 0.20094 -0.037704 -0.011155 -0.17961 -0.013495 -0.052469 -0.061225 0.11691 -0.12175 -0.074154 -0.021364 0.091204 0.42811 0.089347 -0.17408 -0.27714 -0.10101 0.15575 0.25085 0.28342 -0.088627 0.25885 0.047904 -0.013347 -0.092262 0.30504 -0.0089586 -0.082292 -0.15052 -0.2088 0.068209 0.1654 0.11068 0.16167 -0.045308 -0.2402 0.33382 -0.1995 0.12456 0.23573 0.11706 0.22655 0.052173 -0.088656 -0.014905 0.23366 -0.18576 -0.02121 -0.012611 0.40891 -0.51991 -0.25853 0.23916 0.30137 -0.13482 0.0017091 0.19311 -0.23589 -0.16706 -0.017125 -0.30223 -0.17462 -0.081491 -0.10291 -0.14345 0.042059 -0.049255 -0.10508 -0.15114 0.13193 -0.13692 0.33365 -0.042859 -0.1948 -0.39438 0.14772 0.080852 -0.097673 0.26471 0.2404 -0.19338 -0.06305 -0.026532 0.35418 0.25294 0.0029501 -0.083564 -0.15708 0.20917 -0.065542 0.34573 0.1539 0.018975 -0.072019 0.18337 -0.10838 -0.21586 -0.057564 0.26213 0.10719 0.018207 0.3726 0.25975 0.16799 -0.13209 -0.054706 -0.075206 0.083467 -0.07188 0.34248 0.019645 0.13126 0.073772 0.072089 -0.013135 -0.29616 -0.27452 0.12936 0.093577 0.20409 0.14458 -0.023776 -0.069321 0.074848 -0.012981 -0.10425 -0.022816 -0.25802 -0.28509 -0.11199 -0.32968 0.054379 -0.01007 0.0039924 0.29207 0.16077 -0.23563 0.13606 0.036026 0.23378 -0.026806 -0.43038 -0.20998 -0.30193 -0.15241 -0.36068 -0.087482 0.066348 0.19388 -0.13223 -0.18453 -0.20841 -0.20686 0.064664 0.035913 -0.18504 0.055132 0.20466 -0.022537 0.055063 1.4726E-4 -0.016614 -0.24476 0.0037711 -0.11921 -0.11875 0.082297 0.014035 -0.13119 0.4209 -0.043721 -0.061926 0.011343 -0.14997 0.069951 -0.12454 0.0097322 0.022005 -0.32284 -0.16565 0.20971 0.048888 -0.09899 -0.064009 -0.10576 -0.038141 0.109 0.18533 -0.17969 0.0025801 0.089232 0.082186 -0.0089296
journal 0.23836 -0.054169 0.50563 -0.91627 -0.073912 -0.42015 -0.082708 0.32685 0.33109 -0.071369 -0.197 -0.31507 -0.012783 0.25875 0.36978 -0.30677 0.23044 -0.16042 0.19976 0.097429 0.035228 0.12635 -0.12538 0.40671 -0.06598 -0.07753 0.54321 -0.014407 0.27263 0.13165 -0.1118 0.14243 -0.10092 -0.39435 -0.3098 -0.89526 0.029122 -0.52749 -0.10759 -0.38392 0.15498 -0.51989 -0.39995 0.46534 0.17635 -3.7647E-4 0.53654 0.48768 0.10942 -0.54292 -0.14373 -0.36904 0.58997 -0.061099 -0.14422 -0.061418 0.17124 -0.50412 -0.188 -0.0019879 -0.33692 0.051116 0.13902 0.059501 -0.23707 -0.019343 -0.56237 0.20806 0.27624 -0.057696 -0.26116 0.14146 0.29129 -0.32035 0.011817 0.37322 -0.094952 0.15149 0.072052 -0.064397 -0.21211 0.10263 -0.36636 -0.25393 -0.34993 0.080943 0.034539 0.30939 -0.48387 0.19827 0.60575 0.36407 0.56335 -0.043154 -0.085716 -0.1752 -0.15425 -0.064775 0.52698 -0.0026812 -0.07339 0.12781 0.13135 0.0059216 -0.28681 0.59671 0.059973 -0.51317 0.20906 0.13447 0.12991 0.023032 -0.15093 -0.117 0.04934 -0.33123 -0.38841 -0.43271 0.57636 -0.050408 -0.056652 -0.19968 -0.28562 -0.35444 -0.20653 0.036865 -0.083004 0.27277 0.20272 0.27751 -0.27642 0.31671 0.10883 0.029456 -0.14537 0.25392 0.017309 0.12225 0.16482 -0.10972 0.46315 -0.4381 -0.065692 0.51016 -0.014921 0.23488 0.25119 -0.020126 -1.0697 0.47258 -0.79843 -0.66549 -0.70895 -0.090938 0.064939 0.39441 -0.52707 -0.093019 -0.15028 0.24196 -0.38661 -0.038543 -0.45222 0.16594 0.011237 -0.067913 0.26882 0.090297 0.071486 -0.24148 -0.23179 0.38812 0.41248 0.65621 0.10387 -0.098219 0.38904 0.075649 -0.16054 -0.39609 -0.096837 0.075363 -0.24537 0.31794 0.0076153 -0.29521 -0.23541 0.38844 -0.15369 -0.31951 -0.11113 -0.12586 -0.41652 0.085856 0.073109 0.30199 -0.076889 -0.10776 -0.34259 0.12456
laundering -0.30261 -0.14145 -0.2526 0.62482 0.013181 0.05212 0.099044 0.066464 0.3736 -0.13659 -0.19326 0.16497 -0.10707 -0.60194 0.55376 0.024488 0.68807 -0.37439 -0.12026 -0.12925 0.18665 -0.20441 -0.016265 -0.67127 0.088696 -0.57079 0.055635 -0.045888 -0.53983 -0.076796 0.0039543 0.11731 0.13063 -0.33096 -0.17483 0.10238 -0.27212 -0.017659 0.36461 0.020225 -0.11729 -0.12401 0.46775 0.029763 0.12752 -0.16864 -0.11491 0.057154 -0.0065212 -0.10267 0.10494 0.048929 -0.15028 -0.22991 -0.12959 0.033865 -0.17998 -0.39848 -0.20393 -0.16388 0.028613 -0.13925 -0.34826 -0.023489 -0.1547 0.085598 0.031415 -0.058749 0.60542 -0.083238 -0.14184 0.25462 0.34429 -0.055641 0.50717 0.32018 -0.12819 0.046199 0.20881 -0.097578 0.08582 0.068722 0.24503 -0.089031 0.042282 0.023256 -0.14288 0.37487 -0.28154 -0.44318 -0.20015 0.34043 0.0053379 -0.50348 -0.5172 -0.25437 -0.18339 -0.10837 0.16211 0.21113 0.045893 0.075453 -0.1107 0.37761 -0.0022715 0.44282 -0.10726 -0.1892 0.46809 -0.13668 0.19046 0.22382 0.14005 -0.051919 0.1104 -0.19651 0.032882 0.46982 -0.12433 0.085483 -0.11131 -0.79255 -0.14198 -0.82358 -0.39826 0.32426 0.10742 0.10949 0.0065502 0.13612 0.11813 -0.014355 0.22537 -0.22221 -0.049995 0.10117 -0.29546 -0.52888 0.12225 0.17689 -0.065101 -0.3096 0.10736 -0.0669 -0.23766 -0.11211 -0.1601 -0.18869 -0.0043106 0.069957 -0.29834 0.024341 -0.14453 0.24175 -0.19659 0.028042 -0.55131 -0.36543 -0.60584 -0.36933 0.17871 0.17501 -0.46757 0.61017 -0.15359 -0.29757 0.04646 0.24881 0.15336 -0.21907 0.29662 0.0032298 0.26708 -0.65278 0.032751 0.015024 0.22492 0.25311 0.49745 -0.50966 0.72078 -0.18369 0.084742 0.26697 -0.048126 0.27143 -0.32767 -0.046582 0.49623 0.13122 -0.44645 -0.34566 0.10294 0.049424 0.49566 -0.094433 0.075699 -0.082499 0.51181 0.29823
hotel -0.044612 -0.24545 -0.35184 0.2291 -0.12797 -0.44566 -0.27765 -0.15822 -0.26959 0.077689 -0.35138 0.13653 -0.12657 0.14223 0.22028 0.42056 0.19726 -0.02298 0.18133 0.41071 6.4426E-4 -0.093762 -0.12289 0.32616 0.15636 0.23413 -0.20751 0.45061 0.19324 0.11819 0.032107 -0.31116 0.039451 -0.2582 0.24891 -0.089046 0.31107 -0.20164 -0.1231 0.094028 -0.1601 -0.028714 -0.02512 -0.0072431 -0.082113 0.029406 0.50845 0.10704 0.029586 -0.019295 -0.11565 -0.034615 0.023301 0.33374 0.031178 -0.19288 -0.5162 -0.19068 -0.39883 0.031367 0.070489 -0.61055 -0.052666 -0.42348 -0.34371 0.1343 -0.019304 -0.21473 0.14253 -0.30493 -0.11845 0.13794 -0.025529 -0.24511 -0.34521 -0.055909 0.14177 -0.37791 0.42681 -0.030944 -0.33177 0.078477 -0.0102 0.025353 -0.17936 0.33235 0.055673 0.30808 -0.48666 -0.1761 0.7187 0.08394 -0.10595 -0.34748 -0.71409 -0.19737 -0.33934 -0.086571 0.2757 0.39706 0.05943 0.092975 -0.054474 -0.12593 -0.056774 0.20547 0.025673 -0.33921 -0.3011 -0.024943 -0.26858 0.25913 -0.02363 -0.13533 0.031987 -0.16858 0.24164 -0.050778 -0.068655 0.47383 0.19262 -0.43032 0.12241 0.040622 -0.1336 0.24647 0.29894 -0.20467 -8.664E-4 -0.11781 -0.044742 0.2184 -0.37664 -0.23318 0.22782 0.29802 0.017041 -0.37677 -0.67058 0.37157 0.18967 -0.081227 -0.13364 0.075126 0.2495 0.30999 -0.22962 0.019833 -0.26936 -0.10061 0.18079 -0.082278 0.026989 -0.037382 -0.072726 0.21087 -0.42813 0.11033 0.079877 0.13321 0.43723 0.23024 0.096989 0.1601 -0.22205 -0.25036 0.077949 -0.3575 -0.023308 0.38416 0.43512 0.18517 -0.29294 -0.4293 0.28492 -0.19538 -0.057133 0.017526 0.50294 -0.23892 0.55776 0.16717 0.048421 0.26667 -0.0016503 -0.21342 -0.092749 -0.066665 0.16387 0.27928 -0.25665 -0.3319 0.21805 -0.36042 0.40211 -0.24115 0.17578 0.19781 -0.11504 0.45779
term 0.25185 -0.19612 -0.31337 0.0060702 0.40808 0.46236 -0.0084904 -0.03649 0.378 0.12468 0.29586 -0.25705 0.31418 -0.14671 0.19943 -0.28216 0.65414 -0.37423 0.26249 0.17368 -0.25203 -0.066644 -0.04442 0.0090959 0.27657 -0.48524 0.023883 0.066935 -0.1972 -0.030296 -0.26928 0.5775 0.43439 0.095839 0.13367 0.23471 -0.31065 -0.50235 0.26066 0.10407 0.35667 0.45843 0.09356 0.1093 0.18375 -0.099925 0.53207 0.38083 0.16904 -0.32309 -0.34328 -0.30866 0.23907 -0.065227 -0.011642 -0.076534 0.16243 -0.48276 -0.41476 -0.45805 -0.38976 0.2122 0.070636 0.41106 -0.24179 0.11818 0.083426 -0.034386 -0.54973 0.018971 -0.03682 0.40264 0.030361 -0.047872 -0.0071768 0.22634 0.10557 0.24475 0.2972 -0.13017 -0.11636 0.11123 0.02863 0.26739 -0.30112 0.098734 -0.30709 0.026762 -0.27016 -0.010723 -0.011463 -0.097917 0.26061 -0.1225 -0.37515 0.070293 -0.10532 0.36533 0.1565 0.064157 0.097713 0.11685 -0.24044 -0.18278 -0.19765 0.13309 -0.23153 0.050801 -0.006027 0.40344 -0.6712 0.27703 0.17256 0.0072984 0.09634 -0.35096 0.30822 0.087637 0.030491 -0.14283 -0.075406 -0.28734 -0.021549 -0.073719 0.10729 0.49959 0.1018 0.23052 0.0042531 -0.048399 0.37538 -0.18837 0.27821 0.11252 -0.10452 -0.28541 -0.53003 -0.41035 -0.54142 -0.273 -0.29479 -0.15146 0.31865 0.074087 -0.10755 0.0501 0.41894 0.24548 -0.33274 0.033791 -0.14509 -0.30723 0.010385 -0.021873 0.090475 0.055239 -0.41561 -0.29807 -0.19171 0.11974 0.378 0.056859 -0.028194 0.19804 -0.013773 0.094552 0.12885 0.51324 0.26221 0.63451 0.38522 -0.097171 0.050708 -0.14443 0.46002 0.30759 -0.068818 0.16189 -0.27343 -0.082648 0.23622 0.089211 0.31643 -0.015656 0.14725 -0.12889 -0.15947 -0.073848 -0.031802 -0.021617 0.41096 -0.10179 -0.031884 0.33809 0.11764 -0.12138 0.044588 0.418 -0.21921 0.068771
listing 0.052681 0.0018355 -0.35815 0.35996 -0.022204 -0.024842 0.16817 -0.29682 0.0311 0.057863 -0.30962 0.090557 -0.048825 0.2744 0.058053 0.13084 0.47194 0.3186 -0.075975 0.06244 -0.21985 0.16852 -0.24432 0.081333 0.1561 0.41404 0.049529 0.37733 0.23874 -0.071789 0.253 0.024442 -0.005628 -0.18663 0.17664 0.051513 0.1029 -0.046496 0.38062 0.022771 -0.046166 0.13172 -0.30017 0.17705 0.0054093 -0.086185 0.11712 0.36953 -0.087496 -0.092651 -0.020015 0.05584 0.39586 -0.1381 -0.20917 -0.022525 0.050634 0.0097066 -0.25796 0.29349 -0.19848 0.24462 -0.10349 -0.26931 0.13862 -0.10384 -0.13838 0.41142 0.038988 0.014638 -0.16688 0.21778 0.13018 0.42516 0.14616 0.1206 -0.034495 0.32384 -0.2079 -0.027694 -0.098901 -0.072434 0.17289 0.2054 -0.089018 0.061165 -0.082724 0.0070465 -0.14123 0.16702 0.65686 -0.016501 0.14031 -0.27176 -0.81608 0.23756 -0.40344 0.021782 0.34834 -0.0055172 -0.12213 0.11022 -0.27592 -0.23411 -0.29606 0.24114 -0.41933 -0.25708 0.42359 0.15063 -0.18546 -0.036555 -0.057686 -0.12131 0.045968 0.26613 -0.13105 -0.20381 0.42749 -0.09605 0.058097 -0.57601 -0.36129 -0.1906 -0.28305 0.38946 0.33059 -0.13128 -0.55623 -0.35502 0.14944 -0.33182 -0.049989 -0.43404 -0.44027 0.10224 -0.3348 -0.24791 -0.25391 -0.042991 0.21948 0.098439 -0.068686 0.015713 -0.25783 -0.055042 -0.44315 0.26043 -0.17274 -0.0035123 -0.28898 -0.29969 -0.30201 0.28498 0.15634 -0.030838 0.12597 -0.11432 -0.15663 -0.127 0.1733 0.18508 -0.18526 0.03824 0.15963 0.43617 -0.46105 0.39697 0.13689 -0.31694 0.31228 -0.050294 0.24311 -0.14296 0.20386 -0.040252 0.168 0.10719 -0.051349 -0.30464 0.0062437 0.0044581 0.17243 0.052329 0.023731 -0.016463 -0.050419 -0.025739 -0.10322 0.27008 -0.10749 -0.20853 -0.22707 0.058694 0.11122 0.16517 -0.17136 -0.11195 0.0728 0.048747
chemistry 0.18566 0.017369 0.22422 -0.38886 0.1612 -0.10196 0.072832 0.11076 0.43401 -0.14508 0.13851 0.0080965 0.16859 0.10444 0.12852 -0.10326 -0.3311 -0.047119 0.12763 -0.026347 0.23084 0.24997 0.30666 0.037938 -0.20254 0.031078 0.22361 -0.29319 -0.15782 -0.17937 -0.27101 0.041999 0.0056766 -0.14425 -0.35332 -0.083206 -0.2448 -0.31214 -0.10307 -0.18733 0.34485 -0.15502 0.018595 0.1571 0.044852 0.090024 0.13949 0.094028 0.12313 -0.22548 -0.32214 -0.46096 0.3481 -0.058823 0.18622 0.36514 0.43634 -0.65472 -0.10809 0.028702 -0.50199 -0.04711 -0.25427 0.19394 -0.011064 -0.16062 0.044443 -0.05898 0.11539 0.13242 0.087084 0.35658 -0.18384 -0.46539 -0.6996 -0.33834 0.29638 0.084168 0.17234 0.10019 -0.6778 -0.1482 -0.22209 -0.45367 0.054707 -0.29345 -0.26237 0.35491 -0.18099 0.032934 0.68896 0.74656 0.19464 -0.17308 -0.10386 0.14089 -0.22856 -0.23107 0.36578 0.36994 -0.36405 -0.13388 0.019611 -0.01704 -0.46771 0.38385 -0.10818 -0.73467 0.57633 -0.18533 0.22113 -0.49579 -0.25397 -0.20084 0.2694 -0.14039 -0.059933 -0.61736 -0.2799 0.39291 -0.13452 0.11955 -0.062831 0.12867 0.17583 -0.094489 0.0077328 0.032667 0.10253 -0.15497 -0.060454 0.17067 0.063338 0.24078 0.39066 0.24219 0.17644 -0.19303 -0.14221 -0.045536 -0.16948 -0.34581 0.014186 -0.22235 -0.079377 0.11807 0.40215 0.098336 -0.36136 0.36217 -0.41689 0.078868 -0.17343 -0.02558 -0.13999 0.46546 -0.45499 0.16527 -0.095001 0.022994 0.069894 0.18964 -0.091939 0.2099 0.10764 -0.11066 0.29895 0.25708 0.12523 -0.096936 -0.14436 -0.0034179 -8.6885E-4 -0.19792 0.25473 0.29494 0.091127 -0.1357 0.20608 0.019753 -0.24885 -0.27831 0.031718 0.35453 -0.055823 0.09051 0.2904 -0.064173 0.27313 -0.3698 -0.31333 0.052462 0.17346 -0.32753 0.56799 -0.017243 -0.39703 0.022376 0.06287 0.21051
seafood 0.23321 -0.1177 -0.051888 0.077181 -4.3609E-4 -0.27506 -0.029951 -0.17182 -0.01943 0.42152 0.20689 -0.20228 0.050533 0.096517 0.066494 -0.25802 0.35953 0.29925 0.20168 0.11196 0.44706 0.27408 0.24819 0.25639 0.060608 0.15579 0.024641 -0.11141 0.024572 -0.098552 -0.047848 -0.23892 -0.10131 -0.18096 0.25725 -0.091143 -0.34104 -0.079277 -0.23934 0.071714 -0.31672 -0.54874 -0.015373 -0.017869 -0.41196 0.53441 0.64587 0.4558 0.21722 -0.3275 0.20727 -0.57863 0.51519 -0.25243 0.62926 0.45693 0.29755 -1.0113 -0.13765 0.3353 -0.11842 -0.052798 0.088017 -0.43396 -0.10911 -0.27219 -0.14318 0.13865 0.043716 -0.38726 0.15207 -0.062451 -0.17754 -0.17445 -0.078975 -0.095142 0.38153 -0.1016 0.31457 0.16964 -0.29014 -0.53564 -0.037901 -0.11598 -0.077105 0.5751 -0.0016112 0.28205 -0.58102 -0.37678 0.66452 0.031976 0.06958 0.33793 -0.36824 -0.31795 -0.2654 0.49636 0.58587 0.018137 0.057012 0.30252 0.28981 0.038256 0.022962 0.25954 -0.037995 -0.44974 0.074228 -0.10777 -0.23276 0.015293 -0.04248 -0.77812 -0.30781 -0.069022 -0.26967 0.26411 0.31661 0.0087976 0.071544 -0.63917 -0.53377 -0.49768 -0.077736 -0.082189 0.71728 0.024344 -0.058411 -0.0023566 0.34468 -0.088158 -0.0016041 -0.042015 0.27559 -0.21326 0.21202 -0.25647 -0.044296 -0.35083 0.28257 0.40728 0.19167 0.023377 0.0058117 -0.086713 -0.32815 -0.069245 0.1741 0.044974 -0.099577 0.24332 -0.20555 -0.20428 -0.23539 -0.26463 -0.075513 0.28362 0.28091 0.2563 0.44505 0.3061 -0.016879 0.011631 -0.14091 0.14057 -0.15707 0.057298 0.1625 0.023401 0.34368 -0.032463 -0.17091 -0.11904 0.52227 -0.32148 0.5483 0.16606 0.028616 -0.13062 -0.30755 0.23372 0.30763 -0.054863 0.53122 0.054552 0.23606 0.3965 0.042691 -0.029334 -0.56073 -0.013731 0.31035 0.0095088 0.60129 -0.30262 -0.15226 -0.014286 0.24992 0.54834
CD -0.00177 -0.066905 -0.16432 -0.27342 0.044195 -0.6019 0.53445 0.31374 0.0084611 0.11769 0.20035 0.22977 0.17876 0.25861 0.17656 0.076494 0.031361 0.37547 -0.0030679 -0.29419 -0.33897 0.20061 -0.058233 0.30557 -0.060043 0.04688 0.16594 0.36241 0.46912 -0.067877 -0.78452 -0.34616 -0.13882 -0.19198 -0.026681 -0.19319 0.042184 -0.34009 0.18036 -0.088405 -0.28486 0.32036 -0.091378 -0.29685 0.15628 -0.31526 -0.060099 0.48801 -0.21283 0.201 0.27491 0.13543 -0.15939 -0.057863 -0.23217 0.22736 -0.29649 0.24473 -0.069737 0.12529 0.51445 -0.10782 -0.34965 -0.30241 0.33042 0.35386 -0.16396 -0.22694 -0.15361 -0.2275 -0.0019063 -0.18409 -0.36436 0.083871 0.008663 -0.19539 0.34882 0.97578 0.16347 0.36885 -0.75565 -0.33228 0.076168 -0.32127 -0.015797 -0.10638 0.25196 -0.28173 -0.411 -0.48058 0.23879 0.87089 0.13362 -0.21854 -0.97908 -0.021649 0.092947 0.27593 0.404 -0.22408 -0.082312 0.06108 -0.025086 -0.466 -0.14452 0.3148 -0.10404 -0.10943 0.13616 -0.56256 0.16382 0.37803 -0.24577 0.010789 0.054024 -0.18673 -0.39457 -0.021671 -0.13933 0.021263 0.24982 -0.13427 0.055447 -0.6115 0.15226 0.67917 0.54341 0.076713 0.12846 -0.11999 -0.32629 0.26706 0.27538 0.2633 0.018818 -0.17349 -0.21478 -0.51803 0.26685 -0.10628 0.047854 0.14033 0.06904 0.097219 -0.075503 -0.35326 -0.28032 0.041003 -0.36902 0.14072 -0.56883 -0.11356 -0.36587 0.20002 -0.19927 0.19915 -0.60184 0.098835 0.46817 -0.25849 0.19137 -0.29294 -0.12969 0.31842 0.42815 -0.094565 -0.098549 0.30056 -0.34547 0.25056 0.32893 -0.078858 -0.086235 -0.061021 -0.22472 -0.079631 0.21922 -0.063088 -0.23013 0.1174 -0.022082 0.037904 0.17112 0.067088 0.41983 0.040948 -0.24425 0.53138 0.10331 -0.015798 0.34803 -0.14111 -0.27378 -0.53189 0.32894 -0.20478 0.45827 -0.028702 -0.010182 -0.26423
mind 0.19103 0.177 0.21551 -0.086833 0.08026 -0.2215 -0.20093 0.058955 0.31444 0.002875 -0.17504 0.19063 -0.14971 -0.054007 -0.010073 -0.14949 -0.01518 -0.05886 -0.21157 -0.17179 0.0023542 -0.21778 -0.0058937 -0.10857 -0.089337 0.0088007 0.20928 0.020042 -0.14653 -0.079784 0.15148 -0.17826 0.15992 -0.2518 -0.15444 -0.082598 0.23264 0.0716 0.015316 -0.0014682 -0.043347 0.20253 -0.28052 -0.12136 0.21935 0.10046 0.56136 0.29337 0.35416 -0.12804 -0.30956 -0.087327 0.15619 -0.025545 0.065135 0.052874 -0.12944 -0.14404 0.15611 0.11576 -0.11459 -0.15576 0.1927 -0.058096 0.023514 -0.0075778 -0.10596 -0.1918 -0.21461 0.43025 -0.31906 0.22176 -0.18006 0.19349 -0.17277 -0.091169 0.2228 0.17669 -0.07911 -0.071121 -0.44219 -0.055899 0.080743 -0.31397 -0.046385 0.50331 0.20902 -0.049506 -0.11708 -0.12339 0.4349 0.44867 0.0034831 0.28787 -0.68955 0.14853 -0.37411 -0.02852 0.32425 0.052674 0.11237 0.11678 -0.44566 -0.33757 0.24888 0.3401 0.069278 -0.16109 -0.13094 -0.076033 0.083369 0.15371 0.15464 -0.42703 -0.15376 -0.11976 -0.27945 -0.0025704 0.21258 0.043277 0.37484 -0.1555 0.27783 0.038325 -0.17929 0.10047 -0.3184 0.1456 -0.028255 -0.072127 0.16067 -0.049313 -0.1703 0.18064 -0.072694 -0.062473 -0.32695 -0.1018 -0.1153 -0.38254 -0.17287 -0.20612 -0.011017 0.17684 -0.26754 0.0101 -0.038809 0.16646 -0.28364 -0.10773 0.040777 -0.6154 -0.24275 -0.16518 0.23032 0.12232 -0.19161 0.1376 0.0064188 0.063163 0.1619 0.099888 -0.17509 -0.10986 -0.015346 0.12002 -0.15529 0.39831 0.1726 -0.15461 0.025395 -0.097837 -0.026737 -0.019851 -0.11043 0.22028 0.1032 -0.031923 -0.24952 0.0067361 -0.27342 -0.20051 -0.043725 -0.062666 0.12608 -0.14728 -0.060786 0.11672 0.3995 -0.055085 -0.18498 -0.23759 -0.054635 0.061403 0.24721 -0.064076 0.11473 0.25743 -0.20645 0.19077
sex -0.1357 0.36216 -0.29503 -0.19812 0.22067 0.15713 -0.44308 0.22227 -0.059537 0.33559 0.041995 -0.16088 0.22181 0.1062 0.53717 -0.36724 0.15661 -0.46133 0.030421 0.26193 0.086302 3.6523E-4 -0.02124 -0.2549 0.28231 -0.0041244 -0.33511 -0.21927 -0.45858 -0.077342 -0.16747 -0.0022613 0.052539 -0.18092 0.24882 0.26477 0.55725 -0.13764 -0.51684 -0.049681 -0.15223 0.12053 -0.21418 -0.11182 0.13675 -0.50307 0.22111 0.2661 0.56737 -0.054491 -0.20495 -0.14174 0.293 -0.20419 0.10729 0.44801 -0.15413 -0.3444 -0.11308 -0.35041 0.30544 0.27882 -0.34068 -0.34487 -0.19362 -0.1666 -0.13237 -0.22372 0.55528 -0.10151 0.31083 -0.067693 -0.2906 0.31454 0.30946 0.15122 -0.14229 0.26687 0.68581 -0.051657 -0.062241 -0.41872 -0.21956 0.036223 0.21445 -0.13804 0.10212 0.5472 0.27389 -0.080842 0.5588 0.61676 0.75953 -0.29598 -0.52669 -0.071816 -0.56877 0.13433 0.13548 0.49428 0.29612 0.3506 -0.084159 -0.57856 0.26042 0.22741 0.087585 -0.30868 0.040357 0.017106 -0.012434 -0.1006 0.042161 -0.35075 -0.19353 -0.1701 0.028089 -0.17883 0.31671 0.45315 0.3618 -0.42214 0.061435 -0.30876 -0.093297 0.036585 -0.22954 0.15665 0.10683 0.10581 0.19621 0.47489 0.01866 -0.30169 -0.41521 -0.19476 0.12187 -0.1095 -0.069253 -0.15572 -0.064618 -0.32751 -0.094569 0.27367 0.19269 -0.025882 0.16151 0.015631 -0.32102 0.02072 0.16485 0.044617 -0.11333 -0.06018 0.37004 0.64174 -0.73846 -0.46684 -0.22766 -0.38837 0.47309 0.19819 -0.28938 0.40905 0.15454 0.10217 0.25908 0.05382 -0.40024 -0.086734 0.22961 -0.27999 -0.22514 -0.13193 -0.018719 -0.7084 -0.035107 -0.29973 0.029121 -0.061943 -0.0097239 -0.039688 0.17624 0.15584 0.033531 -0.17598 0.25336 0.10133 0.08758 -0.02179 -0.39838 -0.038383 0.17134 0.01456 -0.14962 0.15949 -0.17015 0.22862 -0.074985 -0.025561
food 0.23482 0.20699 -0.21474 0.059113 0.17849 -0.073444 -0.4093 0.24685 0.34442 0.36292 0.14461 -0.21056 0.025958 0.14653 -0.013939 -0.41968 0.25983 -0.16432 -0.18814 -0.21183 -0.23139 -0.091199 0.58239 0.13918 -0.22436 0.42444 -0.049904 -0.55163 -0.069135 -0.24911 -0.48123 -0.22127 0.088494 -0.060332 0.084113 0.27085 -0.15637 -0.30822 -0.069799 -0.01145 -0.53469 -0.14589 -0.045934 -0.33591 0.029628 -0.1581 0.70263 0.54347 -0.088967 -0.22725 0.18787 -0.13509 0.25191 -0.25957 0.478 0.34233 0.0043567 -0.9002 -0.055943 0.39876 0.09881 -0.62227 -0.11283 -0.3454 0.10305 0.024772 -0.09648 -0.30785 -0.054067 -0.10063 0.055647 0.013469 -0.19138 0.14165 -0.52663 -0.41857 0.19342 0.010384 0.031137 0.0072836 -0.23153 -0.20987 -0.2285 -0.022178 -0.11398 0.4395 0.058615 -0.014364 -0.51551 -0.23082 -0.17649 0.030166 0.13754 8.2651E-4 -0.27189 -0.4517 -0.31012 0.20668 0.34164 0.31509 0.22379 0.37887 0.35583 0.14585 0.15523 0.56964 -0.034479 -0.16712 0.41382 -0.12033 -0.14195 0.081419 -0.24059 -0.43895 0.1895 -0.12665 0.021817 -0.18216 0.03639 0.19322 -0.25004 -0.59084 -0.70063 -0.26126 -0.047234 -0.19757 0.18917 -0.30861 -0.06634 -0.033168 0.01508 0.24495 0.15545 0.23378 0.16081 -0.011695 0.19297 -0.068616 -0.033164 -0.14371 0.079879 0.12216 0.24066 0.1673 0.060438 -0.20031 -0.39814 -0.16875 -0.039828 0.31009 -0.063371 -0.053088 -0.19029 -0.055066 -0.39161 -0.07805 -0.22251 0.3653 -0.040324 0.045274 0.1074 0.055298 -0.021151 -0.078222 -0.080474 0.093994 0.12877 -0.18416 -0.044742 0.017702 0.24648 -0.019004 -0.12368 -0.18246 0.1793 0.088168 0.10908 0.26361 0.085695 -0.099498 0.2127 -0.11442 -0.16844 0.079668 0.18445 -0.33224 0.14018 0.085315 -0.10607 0.049285 -0.39214 0.2166 -0.024725 0.056608 0.1865 -0.16965 -0.25727 -0.079373 0.20716 0.4738
precedent 0.0065573 0.073441 0.058586 0.59039 0.35133 -0.11933 -0.097955 0.03095 0.074292 0.43912 -0.1663 0.038832 0.20178 -0.12946 0.091194 0.22686 0.25606 0.20849 -0.12032 -0.012045 -0.17116 -0.14964 0.056433 -0.082323 -0.31658 -0.018686 0.51854 0.028645 0.23782 0.021189 -0.10341 -0.14935 0.35558 0.3468 -0.25827 0.090257 -0.22728 -0.34851 0.072372 -0.14706 0.078042 0.17513 -0.096513 -0.079367 -0.15473 0.10363 0.28955 0.44317 0.082364 0.03339 -0.22572 -0.52521 0.061918 -0.21966 0.069451 0.12714 -0.059445 -0.17796 0.26834 -0.10512 0.014741 -0.08982 0.016973 0.34944 -0.021322 0.0097409 -0.058813 0.38497 -0.0094403 0.14499 -0.040129 0.057203 -0.37979 -0.053795 0.10686 -0.035419 0.18678 0.094271 0.067237 -0.29427 -0.011058 -0.25964 -0.16632 -0.12477 -0.10699 0.36979 0.013176 0.037095 0.13499 0.065351 0.11137 0.01137 -0.14922 -0.026752 -0.19823 0.0369 -0.29624 0.2526 0.012992 -0.39672 0.13951 0.062684 -0.0746 -0.3357 0.065924 -0.14551 0.051449 -0.13922 0.10427 0.33588 0.18464 -0.53861 0.026458 0.063766 0.025091 0.29264 0.23774 -0.024394 -0.12738 0.048378 0.029019 -0.092172 -0.13243 -0.31713 -0.28309 0.21622 0.53499 0.35484 -0.26497 -0.376 0.11515 -0.11302 0.066942 -0.36768 0.19479 -0.33938 -0.34227 -0.18548 -0.34213 -0.32244 -0.14992 0.14641 -0.066803 -0.030059 -0.28727 -0.26937 0.38359 -0.13722 -0.61801 0.05874 -0.25871 -0.34302 -0.12463 0.091873 0.18156 0.21154 -0.30876 -0.034111 -0.20244 0.054173 -0.17995 -0.019154 -0.053 -0.045279 -0.20857 -0.16499 0.57176 0.34869 0.13087 0.039194 0.069252 -0.20594 -0.1126 0.0071198 -0.19477 -0.16767 0.16216 0.048359 -0.3885 0.27562 -0.069309 -0.18372 -0.14227 -0.15407 0.07131 -0.12166 -0.25913 0.11659 0.49466 -0.30139 -0.061759 -0.2793 -0.077664 -0.12811 0.23809 -0.20643 -0.2558 0.16298 0.0088482 -0.14595
series 0.20078 -0.11871 -0.064278 -0.070982 0.094688 -0.1886 -0.16417 -0.028447 -0.29699 0.16464 -0.18264 0.15649 0.09933 -0.037075 0.19231 0.14969 -0.0017497 -0.20523 0.05255 0.064344 -0.034186 0.2119 0.22438 0.10771 0.069313 -0.067887 -0.073029 0.14252 0.34181 0.36208 0.38998 0.19849 0.32322 0.097466 -0.17406 -0.11913 -0.18668 0.025796 0.04918 0.086363 -0.20876 -0.044883 -0.23093 0.10484 -0.017355 -0.033343 -0.12459 -0.11006 -0.054586 -0.15384 0.08708 -0.1353 -0.28456 -0.29589 -0.043687 0.058379 -0.1317 0.040359 0.0053871 -0.18627 -0.16661 -0.042578 0.54416 0.027397 0.33872 0.34248 -0.096905 -0.18158 -0.10665 0.26234 0.042901 -0.019922 -0.37244 0.16305 -0.19361 -0.0099425 0.02333 0.19189 0.55144 -0.26249 -0.42473 -0.38025 -0.28287 -0.0066497 0.19443 0.015816 0.094465 -0.14831 -0.085074 -0.34 0.42109 0.52782 -0.11199 0.3684 0.35938 0.19452 0.082925 0.019938 0.13544 -0.098654 -0.11731 0.24676 -0.0061977 -0.058635 -0.11822 -0.061386 0.15639 0.2275 0.21615 0.28114 -0.053018 -0.26306 0.16713 -0.028585 0.42179 0.13045 -0.25808 -0.15152 -0.13512 0.2321 0.086615 -0.57737 -0.24112 -0.21208 -0.42303 0.52313 0.10728 -0.11286 -0.18019 -0.53468 0.38048 -0.15366 -0.38229 -0.20474 -0.31983 -0.22871 0.096185 0.21907 0.0057467 -0.26555 0.40037 -0.082688 -0.009957 0.053063 0.15546 0.3193 -0.22741 0.090216 -0.33896 0.045904 -0.41677 -0.33474 -0.12202 0.096131 0.29197 0.27794 -0.6211 -0.082855 -0.11645 -0.011808 0.2222 0.24809 -0.23695 0.44687 0.25906 -0.057127 0.15231 0.064705 -0.12618 0.14187 0.29123 -0.21764 -0.2303 0.061215 -0.095029 0.14463 -0.16358 -0.097921 0.37004 0.042465 0.026109 -0.085643 0.34964 0.087948 0.080864 0.24287 0.30387 0.06956 0.37714 -0.23721 -0.11135 -0.18907 0.022421 -0.20999 -0.0013889 0.11927 -0.44268 -0.079302 0.0149 0.30641
kilometer -0.12022 0.27188 0.26051 0.48594 -0.64314 -0.27497 0.32654 -0.033396 -0.0063719 -0.42926 -0.36676 0.26783 -0.3955 0.084358 0.47365 0.28124 0.60265 -0.68708 0.047186 0.21488 0.067281 0.49039 -0.059008 -0.034027 0.068531 0.3126 0.71486 0.36767 0.15642 0.57181 0.16323 -0.26314 0.029284 -0.20032 0.25746 -0.48749 0.098849 -0.012233 0.13435 -0.36596 -0.12897 0.090565 -0.055793 0.25372 -0.34561 0.025575 0.58267 0.87037 0.18712 0.32718 -0.22708 0.087527 0.11396 0.28206 0.10028 0.21072 -0.27585 -0.38998 -0.26307 -0.16731 -0.1909 0.24105 -0.19345 -0.60091 0.13053 -0.19997 -0.32121 0.16422 -0.077637 -0.56949 -0.12463 -0.29967 -0.67115 -0.44379 -0.46904 0.054508 -0.093768 0.32326 0.65872 0.0047095 -0.4514 0.63453 -0.1207 0.0055654 0.046845 -0.34455 0.13158 -0.32994 0.15061 0.25389 -0.14557 0.41371 0.19588 -0.0022314 0.42627 0.037523 -0.21473 -0.14155 0.30308 -0.36171 -0.091945 0.20391 0.5518 -0.047165 0.2999 -0.12116 -0.33495 -0.22983 0.32403 0.46822 -0.04177 0.30981 -0.25368 0.12109 -0.43119 0.29848 0.59185 -0.049836 0.19356 -0.41313 -0.44822 0.089191 0.15065 0.61561 -0.23745 -0.083152 -0.02665 -0.045729 -0.24483 -0.0032707 0.4054 0.24027 0.42567 0.40271 -0.42226 -0.11845 -0.13592 0.078634 0.19691 0.12493 -0.24942 0.40029 0.1334 0.92302 -0.40655 -1.0441 -0.2898 -0.25144 -0.69096 0.481 -0.054532 -0.17609 0.056395 -0.1852 0.19271 0.80436 -0.61614 0.30921 -0.024278 0.084009 -0.06751 -0.15837 -0.23651 0.67445 -0.45576 -0.33159 -0.17263 0.25215 -0.099772 0.19151 0.86934 0.81649 -0.15891 -0.11832 0.49851 0.26653 0.56204 0.0047636 0.01018 0.25227 0.90706 0.11006 0.15945 -0.21801 0.16846 -0.27343 0.20678 0.28949 0.011522 0.16096 -0.11542 -0.23749 0.40803 -0.48149 0.42162 -0.083581 -0.54119 0.24806 -0.29247 0.51681
grocery -0.23582 0.097436 0.23922 0.15103 0.1009 -0.14145 0.0084354 0.086173 0.092457 0.25555 0.037074 0.03826 -0.10777 0.16829 -0.14429 -0.28612 0.28043 -0.096166 0.073255 0.34883 -0.023302 -0.20081 0.47271 0.088091 -0.29341 0.24807 -0.54818 -0.017201 -0.10008 -0.095498 0.027788 -0.32676 -0.22281 -0.14098 0.3756 -0.14691 -0.16256 -0.030099 -0.11376 0.034208 -0.26023 0.1857 0.2429 0.02439 -0.32689 0.2991 0.5868 0.26889 0.0846 -0.25709 0.14969 0.11732 0.55595 0.098495 0.35966 0.35517 0.2969 -0.6014 -0.25312 0.21942 -0.16398 -0.076972 0.17539 -0.38138 0.29539 0.12365 -0.30991 -0.37634 0.030196 -0.11361 -0.10688 0.20949 -0.034366 0.23341 -0.38818 0.0095585 -0.012691 0.024457 0.30099 0.30722 0.13516 -0.070003 -0.26458 0.63062 -0.093204 0.49808 -0.08611 0.034124 -0.61493 -0.66368 0.31025 0.23028 -0.1731 -0.16251 -0.58015 -0.53118 -0.31462 0.20116 0.64664 0.15321 0.22269 0.2276 0.29103 -0.42234 -0.25767 0.71466 0.0038766 0.094004 0.46661 -0.21159 0.31027 0.48536 -0.2187 -0.97192 0.198 -0.36171 -0.092266 0.014536 -0.24646 -0.25901 0.045306 -0.85014 -0.47805 0.11768 0.044998 0.19222 0.25864 -0.18949 0.0023737 -0.084869 -0.2223 0.24289 -0.15589 0.43074 -0.18747 0.0096871 -0.17995 -0.15455 0.18274 0.15464 -0.18739 0.27139 0.42417 0.18855 -0.10045 0.18273 -0.3732 -0.16858 -0.077349 0.027791 0.026032 0.010339 -0.27537 0.44143 -0.054012 -0.31061 -0.38904 0.55377 0.12499 0.21206 0.30296 -0.1135 -0.022646 -0.18181 0.2251 -0.32354 0.011846 -0.16972 -0.33279 0.096906 0.2047 0.43293 0.10182 -0.66768 0.2461 0.077422 0.24464 0.174 0.28185 -0.29273 0.45848 0.074106 0.23335 -0.062375 0.027888 0.20635 0.20914 -0.17048 0.24527 0.0044108 -0.24907 -0.44574 0.097691 -0.48177 -0.22312 -0.0075012 0.07244 0.066691 0.10568 0.20092
wizard 0.15036 0.046966 0.081961 -0.21989 -0.18058 -0.19409 0.35185 -0.019019 0.30523 -0.40897 0.099443 -0.0059831 0.19878 0.039982 -0.11882 0.13898 -0.54396 -0.011231 0.23546 -0.065265 -0.10575 0.085099 -0.094961 0.38816 -0.53518 0.047746 -0.14446 0.16362 -0.081646 -0.035857 0.11002 -0.27196 0.2126 -0.084025 0.30555 -0.20357 0.22454 -0.52985 0.0028047 0.2392 -0.088165 0.4135 -0.34332 0.13092 -0.12947 -0.13975 0.042558 -0.2516 0.070116 -0.3029 0.21795 0.013498 0.22391 -0.16594 0.082667 0.22561 0.069457 -0.55554 -0.049911 0.042514 -0.22078 0.14176 0.19141 -0.25678 -0.022362 0.089782 0.10942 -0.081229 -0.23359 0.057564 0.37779 0.11602 -0.28409 0.54298 0.065304 -0.041699 0.31796 0.035245 0.16516 -0.26896 -0.51371 -0.26549 -0.024385 -0.51693 -0.2395 0.2024 0.57845 0.066204 -0.62466 -0.017448 0.38078 0.49476 -0.25216 0.016829 -0.75889 -0.020808 -0.20162 0.17032 0.42983 -0.17024 -0.15368 0.009502 -0.06271 -0.44659 0.025816 -0.0095294 -0.13326 0.32768 -0.16765 -0.034299 0.10209 -0.30301 0.16601 0.083334 0.42344 0.051816 0.29454 0.10048 -1.7079E-5 0.082913 -0.19804 -0.15119 -0.040892 0.039315 0.036004 -0.047452 0.46425 0.25456 0.19489 -0.35332 0.017819 0.3372 0.25317 -0.41089 -0.30949 -0.20233 0.061717 0.041449 0.57233 0.081185 0.03352 -0.24788 0.23487 0.010129 -0.13607 0.14909 -0.19548 0.20657 -0.29782 0.35177 -0.62594 -0.64888 -0.15532 -0.21423 0.12327 0.5474 -0.061382 -0.246 -0.28193 -0.49716 0.3444 0.20896 -0.1871 0.27104 0.0096818 0.33066 0.41944 0.54602 -0.19321 0.41466 -0.033715 -0.32684 0.21846 0.032032 -0.2377 -0.0073886 -0.010381 0.0058545 0.14654 0.053671 -0.030595 -0.01709 0.19648 0.22875 0.14973 -0.013306 0.13642 -0.21052 0.26569 -0.12947 -0.042563 -0.20331 -0.092568 -0.31976 0.39593 0.26629 -0.0954 0.25192 0.20384 0.052613
information -0.16122 0.23318 0.16956 0.022484 -0.12956 -0.17686 0.12228 -0.087754 0.46679 0.17923 -0.25624 -0.51018 0.028985 -0.28802 0.34764 0.076685 0.37145 -0.2248 0.16256 -0.043935 -0.072529 -0.2091 -0.091191 -0.088973 0.043794 0.33826 0.86573 0.20244 -0.16814 0.11985 0.23194 -0.15053 0.31058 -0.084259 0.15708 -0.27201 -0.053819 -0.035435 0.098054 0.0030184 0.19 0.06084 -0.16767 0.035277 -0.2637 -0.16562 0.0057545 0.054929 0.50407 0.20177 0.093508 0.0090042 0.14467 0.025549 -0.0055023 0.14386 0.0022307 -0.049774 0.052154 -0.010592 0.060902 0.04967 -0.46152 -0.085282 -0.32089 -0.016944 -0.048691 0.05881 0.17398 -0.26086 -0.33147 0.2214 -0.0052838 0.31899 -0.27435 -0.14774 0.14064 0.13439 0.049641 0.085363 -0.16384 0.20209 0.086562 -0.085305 0.30525 0.2297 0.097627 0.17784 0.099642 0.033323 0.13534 0.18192 0.20525 0.089662 -0.79898 0.096538 0.51676 0.10548 0.0026101 -0.21067 -0.12707 0.52765 -0.046141 -0.10109 -0.27265 0.80877 -0.10031 -0.1831 0.76211 0.04653 0.27296 -0.41267 -0.06857 -0.26939 -0.22362 -0.071196 0.069686 -0.37091 -0.10321 0.63159 -0.09686 -0.67828 -0.16045 0.045944 -0.24149 0.14187 0.063793 -0.19726 0.0056449 -0.14698 -0.19904 -0.15038 0.010417 -0.12555 -0.45588 -0.41437 -0.52624 -0.0061687 -0.17684 0.096785 0.45522 0.10648 0.1618 0.047499 0.085589 0.03272 -0.17428 -0.058794 -0.089168 0.13725 -0.19263 -0.43016 -0.085272 0.36843 0.24786 -0.16507 -0.3314 0.067569 -0.22428 0.11684 0.33432 -0.15288 0.015529 -0.13887 -0.11349 -0.1929 0.03283 -0.085549 0.14053 -0.46086 0.010035 -0.071917 -0.17055 -0.25507 -0.22332 0.0017817 0.18513 -0.10454 0.032529 -0.22452 -0.034753 -0.017573 -0.028174 0.017452 0.039985 -0.39798 0.23052 -0.19338 -0.092104 0.22635 -0.23741 -0.072954 0.23133 -0.12604 0.14613 0.10774 -0.4882 -0.047303 0.51 -0.11577
Israel 0.38686 -0.51502 0.18571 0.61691 0.17093 0.04077 -0.029427 0.46662 0.61945 0.4029 0.43216 -0.26963 0.19851 -0.19778 0.17973 -0.26258 0.47424 -0.0047279 -0.12669 0.49681 0.14811 -0.35869 -0.068609 -0.60264 0.013355 0.36572 -0.088003 -0.4196 0.33081 -0.31091 -0.32148 -0.309 0.59623 0.0056555 -0.58467 -0.43669 -0.090219 0.092877 -0.13366 -0.14414 -0.12429 0.24445 0.086136 -0.065011 0.12797 -0.13652 0.45395 0.62013 0.2779 -0.020713 -0.71677 0.21 -0.42548 -0.17955 0.25946 0.24223 0.080786 -0.078956 0.34302 0.28515 -0.12503 0.32512 -0.21053 -0.086727 -0.18765 0.32178 -0.069108 -0.22084 -0.25557 -0.048827 -0.048716 -0.019016 -0.21836 -0.09329 -0.23781 -0.060632 -0.067064 0.25104 -0.087392 -0.16709 -0.12887 -0.060616 -0.79272 0.017519 0.3105 0.16362 -0.36732 0.44752 -0.32365 -0.20106 0.29977 -0.23397 0.03678 0.52882 0.18621 -0.155 0.20504 -0.52915 0.14444 0.26015 -0.29238 -0.29934 0.096736 -0.31951 0.1274 -0.17723 -0.13979 -0.29862 -0.26457 0.1041 0.14255 0.22176 0.50978 0.20912 -0.16439 0.14361 0.13967 -0.13237 0.21474 0.1582 0.35547 -0.13098 0.040571 -0.34033 -0.35742 0.67876 -0.127 0.36137 -0.5349 -0.24531 -0.0045002 -0.15544 0.035308 -0.18483 0.15389 0.11749 0.37097 -0.62166 0.40213 -0.089997 0.30485 0.048761 -0.10367 0.28485 -0.17571 0.12842 7.012E-5 0.12131 -0.26366 0.16084 -0.044397 -0.167 -0.34699 0.44055 -0.0086663 0.46585 -0.35311 -0.24203 -0.36999 -0.15133 0.33857 -0.51771 -0.1673 0.48506 -0.0030545 0.40833 -0.1201 -0.33229 0.16947 0.33852 0.29961 0.46679 -0.11385 -0.26742 -0.18495 -0.37382 -0.19349 0.14859 -0.036583 -0.6577 -0.28455 -0.017823 -0.11425 0.31636 -0.10102 -0.11923 -0.32917 -0.026529 0.44296 0.090675 -0.33199 -0.77446 -0.086782 -0.20204 0.22183 -0.24238 -0.34538 0.25814 0.53652 -0.59098
brandy 0.10467 0.090096 0.083996 -0.30468 -0.17069 0.13783 0.029912 -0.088258 0.35142 0.11516 0.14336 -0.21105 -0.028367 -0.017621 -0.044862 0.17767 0.064464 0.02748 0.059647 0.39352 -0.34433 0.022894 -0.12819 -0.21151 -0.30556 0.33043 0.17314 -0.23593 0.046068 0.21375 0.3791 -0.21938 0.29655 -0.23866 0.18851 -0.06618 -0.22925 -0.20948 -0.13885 -0.11666 0.13808 0.092218 0.44392 0.033044 -0.12267 0.10495 0.23106 0.1617 0.21104 -0.042297 -0.13232 -0.26062 0.088541 -0.14119 0.49865 0.23369 0.052199 -0.31795 0.10627 0.19983 0.24452 -0.41096 0.028961 -0.073207 0.48329 0.15367 0.11845 0.037718 -0.28649 -0.30588 0.052019 0.076236 -0.089492 0.080545 -0.082233 0.024215 -0.11667 -0.042902 0.20126 0.17081 -0.25489 -0.18046 -0.088811 0.081113 -0.36679 0.29627 0.08581 -0.17035 -0.49519 -0.21718 0.89584 0.36238 0.16804 -0.25152 -0.67225 -0.25481 0.04738 0.048787 0.63809 0.46611 0.15298 0.24936 0.031061 -0.66859 -0.18317 0.17588 -0.22704 -0.39665 0.22084 -0.0075204 -0.11921 -0.016841 0.2255 -0.45252 0.064441 0.0012702 -0.13287 0.58245 -0.15985 -0.26578 0.076018 -0.067111 -0.012169 -0.20018 0.014665 -0.14688 0.35014 0.27415 -0.023407 0.079147 -0.0046174 -0.048473 -0.046356 -0.23055 0.10157 -0.096315 0.30132 -0.17322 0.23941 -0.13756 -0.18286 0.018771 -0.23573 -0.033788 -0.48821 0.15334 0.056627 -0.16305 0.17814 -0.14578 0.20249 0.089232 -0.16532 0.25029 0.051455 -0.31521 -0.25104 -0.080827 -0.37784 0.096861 0.06824 0.23112 -0.11846 0.13139 -0.18502 -0.092204 -0.2885 0.010679 -0.1698 0.32065 0.046094 -0.069134 0.028198 0.03702 0.13331 -0.28317 0.3881 -0.0018992 0.074342 -0.1292 0.016443 -0.077692 0.064863 0.01206 0.10678 -0.27627 0.021422 0.25893 0.34543 0.21094 -0.092496 0.033534 0.12971 -0.16354 0.30805 -0.0071923 -0.22681 0.35008 -0.14524 0.010512
interview 0.0065553 0.12273 0.05037 -0.32477 0.035181 -0.036101 0.023456 0.17306 0.08149 0.11878 0.26172 0.17843 0.029087 0.1368 0.40531 0.15969 -0.41669 -0.24753 0.16705 0.27306 -0.15218 -0.14091 -0.22506 0.34305 0.025245 -0.075614 0.044922 0.23958 -0.02688 0.1753 0.1719 0.083342 -0.069141 -0.23243 -0.19744 0.05069 -0.13093 0.17006 0.06968 -0.18044 -0.17091 -0.0077406 -0.11572 -0.37762 0.27701 -0.021294 0.35075 0.27337 0.12452 0.032316 -0.065885 0.27389 -0.27594 0.16804 -0.059118 -0.35024 0.17691 0.15358 -0.051311 0.054216 -0.1064 0.23384 0.39097 0.19549 0.082541 0.16222 -0.23347 0.21297 -0.093001 -0.05936 -0.0026447 0.32529 0.0040337 -0.20091 0.02748 0.13437 0.1177 -0.17141 0.0028847 0.11786 0.12922 -0.3133 -0.30209 0.12152 0.060099 0.28545 -0.0025887 0.21382 0.24644 -0.38774 0.51599 0.26023 0.073002 -0.34373 -0.13764 -0.42423 0.12215 -0.061637 0.19854 -0.12691 -0.021415 0.31167 -0.32832 -0.32275 -0.078843 0.61193 -0.021259 0.03437 -0.10933 0.37932 -0.51021 0.11483 -0.34978 0.11471 -0.2232 0.04799 -0.035661 -0.39713 0.18907 0.063755 -0.041824 -0.2081 0.16385 -0.45555 -0.30163 0.33079 -0.078517 0.347 -0.42758 -0.040071 0.080396 0.27689 -0.013825 0.30685 0.17262 0.12114 -0.39002 -0.11596 -0.46465 -0.11944 0.38692 0.17249 0.11899 0.10845 -0.21685 0.20148 0.024439 0.19618 -0.63955 -0.20502 -0.3744 -0.34408 -0.60928 0.067192 0.15828 0.044352 -0.68316 -0.30683 -0.38184 0.068308 0.24022 0.15215 -0.48236 0.098177 0.16141 -0.083184 -0.0037064 0.24721 -0.13719 -0.19122 0.29213 0.24915 0.11127 0.224 -0.04696 -0.21488 -0.0094459 -0.090449 0.01946 0.17063 0.21781 0.2889 0.2199 0.46451 0.0035975 -0.47228 0.11567 0.0093134 0.22968 0.093816 -0.24087 0.012961 -0.0287 0.21125 -0.0022622 0.14048 -0.24706 0.23164 0.031492 -0.051884
prominence 0.32816 0.27767 0.1378 -0.38297 0.24459 -0.045323 -0.1635 0.099225 -0.016948 -0.13417 -0.10423 0.28655 -0.15245 -0.041513 -0.27935 -0.10329 -0.28068 0.13765 0.13749 -0.088512 0.20642 -0.12382 -0.13495 0.27512 -0.14209 -0.11595 0.15647 -0.13448 0.20729 -0.53031 -0.16211 0.23681 0.088284 -0.069338 -0.012752 -0.073249 0.16605 -0.25095 -0.029659 -0.022162 -0.0034063 0.021138 -0.049556 0.3044 -0.21218 -0.09197 -0.080991 0.10396 0.22809 0.14976 -0.27253 -0.026666 0.4039 -0.1189 0.092616 0.35638 0.31145 -0.51295 -0.11157 -0.086499 0.22989 0.23403 -0.17145 -0.076406 0.10775 -0.06291 0.015696 0.1667 0.0098176 0.17256 -0.13097 -0.19957 0.16403 0.024476 0.11061 -0.25114 0.12576 -0.18226 -0.092538 0.33055 -0.15569 -0.17763 -0.29276 -0.024168 0.085303 0.26709 0.26472 -0.0018479 -0.14661 0.011774 0.018999 0.34896 0.19138 -0.044892 -0.19531 -0.20794 0.35544 0.060862 -0.070959 0.17818 0.032829 -0.37183 -0.26597 -0.089018 -0.14254 0.29931 0.0064452 0.19786 -0.036374 0.082331 0.17554 -0.14908 -0.19804 -0.14996 -0.071671 -0.056623 0.15006 0.060178 0.24751 0.20875 -0.092469 -0.018383 -0.39491 -0.1254 -0.34501 0.46296 0.033352 0.3265 -0.13629 -0.31935 0.41292 -0.089429 -0.073134 -0.22517 -0.16362 -0.32188 -0.27147 0.1791 -0.02758 -0.13219 0.2966 0.19418 -0.11447 0.176 0.16412 0.12677 0.13746 -0.036189 -0.39942 -0.15961 -0.1357 -0.34086 -0.3124 -0.14338 0.095777 0.26908 -0.48104 -0.27787 -0.37677 -0.072524 0.42343 -0.017044 -0.16542 0.17222 -0.094856 -0.20882 0.16193 0.19601 -0.15899 -0.23217 0.33124 0.091836 0.19506 -0.50371 0.15783 -0.36693 0.3909 0.010447 0.15713 -0.25807 0.20369 -0.22217 0.10002 -0.18827 -0.076406 -0.23312 0.018998 -0.20318 0.29912 -0.15709 0.049189 -0.37088 -0.2723 -0.091694 0.34973 0.062896 -0.11512 0.21805 0.17255 -0.062594
bed 0.096677 0.16968 0.12609 -0.36767 0.23928 -0.17743 -0.16767 -0.21975 -0.2345 -0.077405 -0.13413 0.20905 -0.2753 0.29791 0.65603 -0.12655 -0.12994 -0.29203 -0.088078 -0.11887 0.27373 -0.18427 -0.19355 -0.24476 0.062728 0.17692 0.21938 -4.4342E-4 0.2478 0.46985 0.017923 -0.40666 -0.14162 0.12656 0.22804 -0.21655 0.30004 -0.13433 -0.0097908 -0.0089971 -0.36329 0.35515 -0.47602 -0.029618 0.1528 -0.20014 0.46971 0.41574 -0.21223 0.019316 -0.15235 0.11303 0.023327 0.025925 0.035231 -0.031081 -0.024199 -0.31671 0.092217 0.1017 0.41143 -0.28098 0.22876 -0.42566 -0.11128 0.35845 0.3083 -0.33359 -0.38805 -0.29019 -0.17673 0.53594 0.094424 0.12121 -0.3287 -0.082409 0.39205 0.17323 0.47631 -0.27271 -0.29501 -0.10656 -0.48857 0.20258 -0.43558 0.0082096 0.058222 0.082788 -0.082922 -0.11174 0.24538 0.52677 0.08087 -0.58622 -0.84738 -0.41625 -0.64812 -0.02145 0.69276 0.31588 -0.42405 0.38916 -0.15509 -0.3233 0.57262 0.21576 0.16858 0.034782 -0.27257 -0.064214 0.037741 0.15256 -0.22643 -0.32443 -0.10767 -0.14622 0.098194 0.081635 -0.094644 -0.053462 -0.17756 -0.39636 0.36671 0.18008 0.089694 -0.21171 0.24859 0.01847 0.092647 0.018723 -0.076638 0.29068 0.1039 0.0652 0.19211 0.40025 -0.16057 -0.048238 -0.19297 0.59319 0.15849 -0.4105 -0.039702 -0.15153 0.050498 0.16781 -0.060326 0.19715 0.095385 -0.32839 0.141 0.077202 -0.294 -0.060832 -0.31891 0.26218 -0.42783 0.11899 0.1817 -0.16422 -0.01921 0.057575 -0.14485 0.42588 0.22803 0.043301 0.30138 0.15452 -0.21643 -0.0022372 -0.28431 0.013633 0.15997 -0.14357 0.32185 0.072364 0.10767 0.30597 -0.057325 -0.23437 0.29718 -0.18425 -0.58233 0.24011 0.13808 -0.29414 -0.13782 0.12237 -0.043566 0.25663 -0.31773 -0.44689 -0.077334 -0.33818 0.062822 0.011148 -0.058331 -0.19824 -0.27068 0.082009
furnace 0.0060012 -0.011858 -0.22413 0.23563 -0.40755 -0.14665 0.31307 0.14586 0.35493 0.27925 -0.62576 -0.06181 -0.1702 0.16778 0.46728 -7.669E-5 0.31924 -0.11949 -0.07786 -0.52918 -0.23604 -0.063829 0.11615 -0.19149 0.43774 0.29693 -0.024209 -0.10709 0.15135 0.016384 -0.20444 -0.16611 -0.053232 0.096896 0.21357 -0.56435 0.16219 -0.075159 -0.098111 0.052179 -0.34296 0.0037229 -0.3004 0.047785 -0.14151 0.19037 0.48434 0.52121 -0.10156 -0.07266 -0.2377 0.12346 0.098828 0.099063 0.43387 0.40081 0.34076 -0.53351 0.23257 0.17309 -0.20121 -0.14532 0.43159 -0.21413 -0.055673 -0.13956 0.15079 -0.20578 -0.36562 -0.031007 -0.050184 0.39565 -0.73518 0.30262 -0.44844 -0.46487 0.24146 0.30845 -0.069655 0.025536 -0.61808 -0.010893 0.088577 0.17807 -0.3 0.12389 0.21779 -0.02682 -0.35766 -0.30751 0.61034 0.53415 -0.001427 0.080722 -0.22785 0.019586 0.095445 0.1223 0.40599 0.41041 -0.27415 0.080152 0.012827 -0.011225 -0.38906 0.23385 -0.38848 -0.36806 0.076898 -0.015302 0.089442 -0.038252 0.28161 -0.094106 0.16057 0.030812 -0.033543 0.13178 -0.17684 -0.11973 0.016125 -0.18309 0.25763 -0.35106 -0.063889 -0.30614 0.26021 0.14191 0.083309 -0.31897 -0.20121 -0.012885 -0.07123 0.16828 0.034249 0.15512 0.14031 -0.013673 0.39493 0.52425 -0.13908 0.13347 0.099975 0.088649 -0.044644 -0.043602 -0.10053 -0.31896 0.12648 0.053861 -0.13654 0.34447 -0.10335 -0.055483 -0.068975 0.21878 -0.031851 0.24179 -0.19441 0.2659 0.14563 -0.015035 0.37344 0.33445 -0.26001 -0.12203 0.24255 -0.057546 0.022721 0.1229 -0.007851 -0.0135 0.25647 -0.45595 0.24543 0.41466 0.18281 0.065076 0.15646 -0.36692 0.63217 0.12534 -0.07046 -0.098234 -0.066412 0.087221 0.19125 0.21002 0.059342 0.053429 0.24045 0.12395 0.15873 -0.17205 0.1707 0.1695 -0.20445 -0.035882 0.015385 0.24341
